{"learner":{"attributes":{"scikit_learn":"{\"_estimator_type\": \"classifier\"}"},"feature_names":["volatility ","momentum ","trend_strength ","lag1 ","lag5 ","lag20 ","regime "],"feature_types":["float","float","float","float","float","float","int"],"gradient_booster":{"model":{"cats":{"enc":[],"feature_segments":[],"sorted_idx":[]},"gbtree_model_param":{"num_parallel_tree":"1","num_trees":"300"},"iteration_indptr":[0,1,2,3,4,5,6,7,8,9,10,11,12,13,14,15,16,17,18,19,20,21,22,23,24,25,26,27,28,29,30,31,32,33,34,35,36,37,38,39,40,41,42,43,44,45,46,47,48,49,50,51,52,53,54,55,56,57,58,59,60,61,62,63,64,65,66,67,68,69,70,71,72,73,74,75,76,77,78,79,80,81,82,83,84,85,86,87,88,89,90,91,92,93,94,95,96,97,98,99,100,101,102,103,104,105,106,107,108,109,110,111,112,113,114,115,116,117,118,119,120,121,122,123,124,125,126,127,128,129,130,131,132,133,134,135,136,137,138,139,140,141,142,143,144,145,146,147,148,149,150,151,152,153,154,155,156,157,158,159,160,161,162,163,164,165,166,167,168,169,170,171,172,173,174,175,176,177,178,179,180,181,182,183,184,185,186,187,188,189,190,191,192,193,194,195,196,197,198,199,200,201,202,203,204,205,206,207,208,209,210,211,212,213,214,215,216,217,218,219,220,221,222,223,224,225,226,227,228,229,230,231,232,233,234,235,236,237,238,239,240,241,242,243,244,245,246,247,248,249,250,251,252,253,254,255,256,257,258,259,260,261,262,263,264,265,266,267,268,269,270,271,272,273,274,275,276,277,278,279,280,281,282,283,284,285,286,287,288,289,290,291,292,293,294,295,296,297,298,299,300],"tree_info":[0,0,0,0,0,0,0,0,0,0,0,0,0,0,0,0,0,0,0,0,0,0,0,0,0,0,0,0,0,0,0,0,0,0,0,0,0,0,0,0,0,0,0,0,0,0,0,0,0,0,0,0,0,0,0,0,0,0,0,0,0,0,0,0,0,0,0,0,0,0,0,0,0,0,0,0,0,0,0,0,0,0,0,0,0,0,0,0,0,0,0,0,0,0,0,0,0,0,0,0,0,0,0,0,0,0,0,0,0,0,0,0,0,0,0,0,0,0,0,0,0,0,0,0,0,0,0,0,0,0,0,0,0,0,0,0,0,0,0,0,0,0,0,0,0,0,0,0,0,0,0,0,0,0,0,0,0,0,0,0,0,0,0,0,0,0,0,0,0,0,0,0,0,0,0,0,0,0,0,0,0,0,0,0,0,0,0,0,0,0,0,0,0,0,0,0,0,0,0,0,0,0,0,0,0,0,0,0,0,0,0,0,0,0,0,0,0,0,0,0,0,0,0,0,0,0,0,0,0,0,0,0,0,0,0,0,0,0,0,0,0,0,0,0,0,0,0,0,0,0,0,0,0,0,0,0,0,0,0,0,0,0,0,0,0,0,0,0,0,0,0,0,0,0,0,0,0,0,0,0,0,0,0,0,0,0,0,0,0,0,0,0,0,0,0,0,0,0,0,0],"trees":[{"base_weights":[-2.9329514E-2,8.860116E-1,-4.7146525E-2,6.883084E-2,4.2332172E-2,5.024346E-1,-6.407736E-2,-3.6120754E-2,3.0095706E-2,8.496768E-1,5.8471877E-2,-8.59585E-1,-4.574737E-2,5.963126E-3,1.0510997E0,7.8808826E-1,-5.221136E-1,-3.2917184E-3,-1.0558467E0,-7.628177E-2,2.1177089E-1,1.7067138E-2,6.104965E-2,5.2888304E-2,8.383775E-3,5.963126E-3,-4.866681E-2,-5.813688E-2,-1.3868488E-2,-3.0019844E-3,-5.4217774E-2,2.188263E-2,-2.3711694E-2],"categories":[],"categories_nodes":[],"categories_segments":[],"categories_sizes":[],"default_left":[0,0,0,0,0,0,0,0,0,0,0,0,0,0,0,0,0,0,0,0,0,0,0,0,0,0,0,0,0,0,0,0,0],"id":0,"left_children":[1,3,5,-1,7,9,11,-1,-1,13,15,17,19,-1,21,23,25,-1,27,29,31,-1,-1,-1,-1,-1,-1,-1,-1,-1,-1,-1,-1],"loss_changes":[7.456414E0,3.5556712E0,4.19067E0,0E0,2.2501915E0,2.0268297E0,6.29559E0,0E0,0E0,9.757352E-1,3.3705277E0,1.4460597E0,3.3636255E0,0E0,2.7518368E-1,4.0721273E-1,1.4159361E0,0E0,3.2101917E-1,6.178389E0,7.241289E0,0E0,0E0,0E0,0E0,0E0,0E0,0E0,0E0,0E0,0E0,0E0,0E0],"parents":[2147483647,0,0,1,1,2,2,4,4,5,5,6,6,9,9,10,10,11,11,12,12,14,14,15,15,16,16,18,18,19,19,20,20],"right_children":[2,4,6,-1,8,10,12,-1,-1,14,16,18,20,-1,22,24,26,-1,28,30,32,-1,-1,-1,-1,-1,-1,-1,-1,-1,-1,-1,-1],"split_conditions":[-3.514855E-3,2.2547038E-3,-8.64428E-3,6.883084E-2,-1.02343075E-2,-7.6408486E-4,-7.6398724E-3,-3.6120754E-2,3.0095706E-2,-2.408009E-3,-1.2783139E-3,-1.4346989E-3,1.96481E-3,5.963126E-3,4.2835306E-3,4.860996E-3,-1.2349099E-4,-3.2917184E-3,5.2784337E-3,1.8535417E-3,5.7307095E-3,1.7067138E-2,6.104965E-2,5.2888304E-2,8.383775E-3,5.963126E-3,-4.866681E-2,-5.813688E-2,-1.3868488E-2,-3.0019844E-3,-5.4217774E-2,2.188263E-2,-2.3711694E-2],"split_indices":[1,5,4,0,4,1,4,0,0,1,5,5,1,0,0,0,1,0,5,1,0,0,0,0,0,0,0,0,0,0,0,0,0],"split_type":[0,0,0,0,0,0,0,0,0,0,0,0,0,0,0,0,0,0,0,0,0,0,0,0,0,0,0,0,0,0,0,0,0],"sum_hessian":[4.5364493E2,7.731167E0,4.4591376E2,4.4890647E0,3.2421021E0,1.2469624E1,4.3344412E2,1.2469624E0,1.9951398E0,6.4842043E0,5.9854193E0,8.728737E0,4.247154E2,1.7457473E0,4.738457E0,2.4939249E0,3.4914947E0,1.9951398E0,6.733597E0,3.8032352E2,4.439186E1,1.4963548E0,3.2421021E0,1.2469624E0,1.2469624E0,1.7457473E0,1.7457473E0,5.4866347E0,1.2469624E0,3.753357E2,4.9878497E0,3.3667984E1,1.0723877E1],"tree_param":{"num_deleted":"0","num_feature":"7","num_nodes":"33","size_leaf_vector":"1"}},{"base_weights":[-1.5614385E-2,9.5150185E-1,-2.9618323E-2,7.0728385E-3,1.1171546E0,4.9465823E-1,-4.930733E-2,6.7551754E-2,1.5942907E-2,9.7411E-1,-2.7719513E-2,4.652595E-1,-6.639328E-2,1.0894403E0,8.466397E-3,-8.067191E-1,9.867757E-1,-2.6598757E-2,7.017988E-1,-6.33451E-1,-3.3675533E-2,2.1195423E-2,7.294287E-2,-1.2370335E-2,-5.0065942E-2,6.357695E-2,8.398764E-3,4.762847E-2,1.0517517E-2,-1.1946959E-2,-7.0157014E-2,3.4757291E-3,-6.4120414E-3],"categories":[],"categories_nodes":[],"categories_segments":[],"categories_sizes":[],"default_left":[0,0,0,0,0,0,0,0,0,0,0,0,0,0,0,0,0,0,0,0,0,0,0,0,0,0,0,0,0,0,0,0,0],"id":1,"left_children":[1,3,5,-1,7,9,11,-1,-1,13,15,17,19,21,-1,23,25,-1,27,29,31,-1,-1,-1,-1,-1,-1,-1,-1,-1,-1,-1,-1],"loss_changes":[6.134874E0,7.096224E-1,4.622343E0,0E0,5.4442406E-1,4.0876665E0,3.8133042E0,0E0,0E0,6.027527E-1,7.6965284E0,3.664166E0,7.720154E0,1.1602306E0,0E0,3.4972596E-1,7.7557325E-1,0E0,1.2424636E0,6.55937E0,3.8688786E0,0E0,0E0,0E0,0E0,0E0,0E0,0E0,0E0,0E0,0E0,0E0,0E0],"parents":[2147483647,0,0,1,1,2,2,4,4,5,5,6,6,9,9,10,10,11,11,12,12,13,13,15,15,16,16,18,18,19,19,20,20],"right_children":[2,4,6,-1,8,10,12,-1,-1,14,16,18,20,22,-1,24,26,-1,28,30,32,-1,-1,-1,-1,-1,-1,-1,-1,-1,-1,-1,-1],"split_conditions":[-4.1045416E-3,-1.2440097E-2,-8.64428E-3,7.0728385E-3,-1.7495768E-1,-1.695867E-3,-8.64428E-3,6.7551754E-2,1.5942907E-2,3.3783793E-2,3.1078728E-3,-2.7763068E-3,-6.231108E-3,-2.2375581E-3,8.466397E-3,-1.4872008E-3,6.7615695E-3,-2.6598757E-2,-7.512313E-4,2.418726E-3,5.600394E-4,2.1195423E-2,7.294287E-2,-1.2370335E-2,-5.0065942E-2,6.357695E-2,8.398764E-3,4.762847E-2,1.0517517E-2,-1.1946959E-2,-7.0157014E-2,3.4757291E-3,-6.4120414E-3],"split_indices":[1,3,3,0,2,5,4,0,0,2,5,3,4,4,0,1,5,0,1,3,4,0,0,0,0,0,0,0,0,0,0,0,0],"split_type":[0,0,0,0,0,0,0,0,0,0,0,0,0,0,0,0,0,0,0,0,0,0,0,0,0,0,0,0,0,0,0,0,0],"sum_hessian":[4.4989682E2,5.4660273E0,4.444308E2,1.242774E0,4.2232533E0,1.5213154E1,4.2921762E2,2.7308006E0,1.4924525E0,7.481593E0,7.731561E0,1.2950965E1,4.1626666E2,6.234449E0,1.2471442E0,4.4892282E0,3.242333E0,2.2435038E0,1.0707461E1,2.1705746E1,3.945609E2,2.991874E0,3.242575E0,1.7450426E0,2.7441857E0,1.9954307E0,1.2469022E0,6.468501E0,4.2389603E0,1.5216707E1,6.489037E0,1.8880302E2,2.0575789E2],"tree_param":{"num_deleted":"0","num_feature":"7","num_nodes":"33","size_leaf_vector":"1"}},{"base_weights":[-1.4205903E-2,2.1849257E-1,-7.84743E-2,1.5785292E-1,9.469284E-1,-6.739012E-1,-5.0796323E-2,2.874779E-1,-1.6713426E-1,2.0780903E-1,6.4580694E-2,-8.6740416E-1,4.2628553E-2,9.9317133E-1,-6.792734E-2,5.765512E-1,1.21863656E-1,-3.0186343E-1,8.036256E-1,3.0490208E-2,-1.4347187E-2,-1.0129085E0,-4.0015858E-3,4.6795864E-2,-5.8329023E-2,1.2503405E-2,6.727302E-2,5.2613136E-3,-3.163729E-1,1.9782042E-2,6.25779E-2,2.5766347E-2,-6.0546827E-3,-4.4194043E-2,-7.058365E-3,5.2701186E-2,9.797648E-3,-2.8772317E-3,-5.8501728E-2,1.3320366E-3,-4.8867922E-2,-2.4242116E-2,7.961694E-3],"categories":[],"categories_nodes":[],"categories_segments":[],"categories_sizes":[],"default_left":[0,0,0,0,0,0,0,0,0,0,0,0,0,0,0,0,0,0,0,0,0,0,0,0,0,0,0,0,0,0,0,0,0,0,0,0,0,0,0,0,0,0,0],"id":2,"left_children":[1,3,5,7,9,11,13,15,17,19,-1,21,23,25,27,29,31,33,35,-1,-1,37,-1,-1,-1,-1,-1,39,41,-1,-1,-1,-1,-1,-1,-1,-1,-1,-1,-1,-1,-1,-1],"loss_changes":[6.68201E0,4.1224732E0,5.732938E0,3.8596227E0,1.5740747E0,2.18091E0,6.067303E0,3.0439053E0,3.6994896E0,8.694563E-1,0E0,1.3191366E0,5.6729093E0,1.0982013E0,6.020405E0,2.3653975E0,4.1369686E0,2.1139786E0,3.2515192E-1,0E0,0E0,1.4682789E0,0E0,0E0,0E0,0E0,0E0,5.418021E0,6.1135683E0,0E0,0E0,0E0,0E0,0E0,0E0,0E0,0E0,0E0,0E0,0E0,0E0,0E0,0E0],"parents":[2147483647,0,0,1,1,2,2,3,3,4,4,5,5,6,6,7,7,8,8,9,9,11,11,12,12,13,13,14,14,15,15,16,16,17,17,18,18,21,21,27,27,28,28],"right_children":[2,4,6,8,10,12,14,16,18,20,-1,22,24,26,28,30,32,34,36,-1,-1,38,-1,-1,-1,-1,-1,40,42,-1,-1,-1,-1,-1,-1,-1,-1,-1,-1,-1,-1,-1,-1],"split_conditions":[-1.058188E-3,6.7615695E-3,-9.1304304E-4,7.5683824E-4,-2.089421E-3,2.3691235E-3,-9.6446825E-3,-1.6101712E-3,-1.1387676E-3,1.0554337E-2,6.4580694E-2,5.358445E-3,4.292022E-3,-2.5679366E-4,3.1078728E-3,-2.2177536E-3,4.275224E-3,1.4027291E-3,1.488262E-4,3.0490208E-2,-1.4347187E-2,2.935792E-3,-4.0015858E-3,4.6795864E-2,-5.8329023E-2,1.2503405E-2,6.727302E-2,3.7919295E-3,3.40582E-3,1.9782042E-2,6.25779E-2,2.5766347E-2,-6.0546827E-3,-4.4194043E-2,-7.058365E-3,5.2701186E-2,9.797648E-3,-2.8772317E-3,-5.8501728E-2,1.3320366E-3,-4.8867922E-2,-2.4242116E-2,7.961694E-3],"split_indices":[1,5,1,3,1,3,3,5,1,5,0,0,3,1,5,5,0,3,5,0,0,0,0,0,0,0,0,1,3,0,0,0,0,0,0,0,0,0,0,0,0,0,0],"split_type":[0,0,0,0,0,0,0,0,0,0,0,0,0,0,0,0,0,0,0,0,0,0,0,0,0,0,0,0,0,0,0,0,0,0,0,0,0,0,0,0,0,0,0],"sum_hessian":[4.446566E2,9.5711494E1,3.489451E2,8.947936E1,6.2321305E0,1.4462849E1,3.3448224E2,6.404834E1,2.543102E1,2.4917948E0,3.7403357E0,1.122178E1,3.2410684E0,4.480243E0,3.3000198E2,2.242503E1,4.162331E1,2.2936735E1,2.4942844E0,1.2464719E0,1.245323E0,9.2297125E0,1.9920675E0,1.9940192E0,1.2470493E0,1.9907917E0,2.4894514E0,2.5566533E2,7.433667E1,1.8936056E1,3.4889731E0,1.5461974E1,2.6161337E1,3.9889674E0,1.894777E1,1.2462342E0,1.2480502E0,1.496552E0,7.7331605E0,2.511733E2,4.492032E0,5.4878273E1,1.9458397E1],"tree_param":{"num_deleted":"0","num_feature":"7","num_nodes":"43","size_leaf_vector":"1"}},{"base_weights":[3.072244E-2,7.168341E-1,2.4221002E-3,5.639523E-2,9.97828E-1,-1.0029498E0,2.508003E-2,6.407639E-1,-4.857756E-2,6.986791E-2,7.136638E-1,-4.012178E-2,-1.3290544E0,1.7057942E-1,-4.4931885E-2,6.042927E-2,-4.7520297E-3,-1.2702925E-2,5.9447754E-2,9.953979E-3,-1.3084123E-2,-2.1733163E-2,-7.432843E-2,2.8543395E-1,-1.6292226E-1,-1.0844053E-1,2.1042497E-1,-2.802181E-2,3.5247523E-2,3.2353647E-2,6.630233E-3,-3.368562E-2,4.0758937E-3,-4.574378E-3,-6.9520324E-2,3.5054475E-2,2.7839476E-3],"categories":[],"categories_nodes":[],"categories_segments":[],"categories_sizes":[],"default_left":[0,0,0,0,0,0,0,0,0,0,0,0,0,0,0,0,0,0,0,0,0,0,0,0,0,0,0,0,0,0,0,0,0,0,0,0,0],"id":3,"left_children":[1,3,5,7,9,11,13,15,-1,-1,17,19,21,23,25,-1,-1,27,-1,-1,-1,-1,-1,29,31,33,35,-1,-1,-1,-1,-1,-1,-1,-1,-1,-1],"loss_changes":[8.893296E0,3.3107986E0,1.00700035E1,4.5122457E0,4.4101238E-1,3.0058575E0,4.4104958E0,2.0914903E0,0E0,0E0,3.2764716E0,2.3738496E-1,3.7479305E-1,5.4328136E0,4.767935E0,0E0,0E0,2.2527535E0,0E0,0E0,0E0,0E0,0E0,5.7152634E0,4.632052E0,4.9796114E0,4.4116096E0,0E0,0E0,0E0,0E0,0E0,0E0,0E0,0E0,0E0,0E0],"parents":[2147483647,0,0,1,1,2,2,3,3,4,4,5,5,6,6,7,7,10,10,11,11,12,12,13,13,14,14,17,17,23,23,24,24,25,25,26,26],"right_children":[2,4,6,8,10,12,14,16,-1,-1,18,20,22,24,26,-1,-1,28,-1,-1,-1,-1,-1,30,32,34,36,-1,-1,-1,-1,-1,-1,-1,-1,-1,-1],"split_conditions":[-8.64428E-3,-3.5062248E-3,-7.6398724E-3,-4.461968E-3,4.947341E-3,-2.544288E-3,-1.5798878E-3,5.916238E-3,-4.857756E-2,6.986791E-2,6.311488E-3,5.1421425E-3,-3.4245022E-3,3.1056728E-3,5.4913363E-3,6.042927E-2,-4.7520297E-3,1.7964363E-3,5.9447754E-2,9.953979E-3,-1.3084123E-2,-2.1733163E-2,-7.432843E-2,3.7343733E-3,4.1195233E-3,5.400438E-3,-1.8282549E-3,-2.802181E-2,3.5247523E-2,3.2353647E-2,6.630233E-3,-3.368562E-2,4.0758937E-3,-4.574378E-3,-6.9520324E-2,3.5054475E-2,2.7839476E-3],"split_indices":[4,3,4,3,0,3,5,0,0,0,0,0,5,4,0,0,0,5,0,0,0,0,0,0,4,0,4,0,0,0,0,0,0,0,0,0,0],"split_type":[0,0,0,0,0,0,0,0,0,0,0,0,0,0,0,0,0,0,0,0,0,0,0,0,0,0,0,0,0,0,0,0,0,0,0,0,0],"sum_hessian":[4.571008E2,1.7143572E1,4.399572E2,5.4753017E0,1.166827E1,8.743159E0,4.3121405E2,3.73097E0,1.7443317E0,3.221485E0,8.446786E0,2.4961824E0,6.246977E0,1.3961937E2,2.915947E2,1.7432021E0,1.9877678E0,3.7259116E0,4.720874E0,1.249098E0,1.2470845E0,1.4983904E0,4.748586E0,1.0396056E2,3.565881E1,2.3397833E2,5.7616352E1,2.2373638E0,1.4885479E0,2.992211E1,7.403846E1,1.097304E1,2.468577E1,2.3198192E2,1.9964101E0,1.2967805E1,4.464855E1],"tree_param":{"num_deleted":"0","num_feature":"7","num_nodes":"37","size_leaf_vector":"1"}},{"base_weights":[2.8531065E-2,6.9693667E-1,4.707602E-3,-6.0391757E-3,8.2457906E-1,-6.826619E-1,2.3912393E-2,9.907303E-1,-4.990423E-3,1.0869465E-2,-8.831674E-1,5.5761766E-1,7.282684E-3,3.5783902E-1,5.830228E-2,6.4549088E-3,-1.1131705E0,8.430596E-1,-2.4671849E-2,-3.2927793E-2,2.4842286E-1,-5.16505E-3,3.3808924E-2,-6.616447E-2,-1.5220426E-2,-4.440311E-3,5.24016E-2,3.4669008E-2,-2.4807578E-2,-4.5884494E-3,6.5351315E-3,-3.7044153E-2,1.6879333E-2],"categories":[],"categories_nodes":[],"categories_segments":[],"categories_sizes":[],"default_left":[0,0,0,0,0,0,0,0,0,0,0,0,0,0,0,0,0,0,0,0,0,0,0,0,0,0,0,0,0,0,0,0,0],"id":4,"left_children":[1,3,5,-1,7,9,11,13,-1,-1,15,17,19,21,-1,-1,23,25,27,29,31,-1,-1,-1,-1,-1,-1,-1,-1,-1,-1,-1,-1],"loss_changes":[7.221809E0,1.728754E0,5.813082E0,0E0,2.1921225E0,2.3520236E0,3.7959516E0,8.747053E-1,0E0,0E0,2.4687252E0,2.16897E0,4.0440817E0,6.5242976E-1,0E0,0E0,9.976511E-1,1.7550898E0,2.1122825E0,3.4552763E0,5.5078115E0,0E0,0E0,0E0,0E0,0E0,0E0,0E0,0E0,0E0,0E0,0E0,0E0],"parents":[2147483647,0,0,1,1,2,2,4,4,5,5,6,6,7,7,10,10,11,11,12,12,13,13,16,16,17,17,18,18,19,19,20,20],"right_children":[2,4,6,-1,8,10,12,14,-1,-1,16,18,20,22,-1,-1,24,26,28,30,32,-1,-1,-1,-1,-1,-1,-1,-1,-1,-1,-1,-1],"split_conditions":[-9.189442E-3,-2.9544094E-1,-7.6398724E-3,-6.0391757E-3,8.790435E-2,-8.64428E-3,-9.189442E-3,-1.40188625E-2,-4.990423E-3,1.0869465E-2,-2.9075197E-3,-7.476644E-3,2.5538692E-1,7.6037147E-3,5.830228E-2,6.4549088E-3,3.0787459E-2,4.680396E-3,-1.8282549E-3,5.1421425E-3,-4.2962222E-3,-5.16505E-3,3.3808924E-2,-6.616447E-2,-1.5220426E-2,-4.440311E-3,5.24016E-2,3.4669008E-2,-2.4807578E-2,-4.5884494E-3,6.5351315E-3,-3.7044153E-2,1.6879333E-2],"split_indices":[4,2,4,0,2,4,3,4,0,0,3,2,2,0,0,0,2,0,4,0,3,0,0,0,0,0,0,0,0,0,0,0,0],"split_type":[0,0,0,0,0,0,0,0,0,0,0,0,0,0,0,0,0,0,0,0,0,0,0,0,0,0,0,0,0,0,0,0,0],"sum_hessian":[4.5273077E2,1.4608605E1,4.3812216E2,1.9797015E0,1.2628904E1,1.0969246E1,4.2715292E2,1.0643967E1,1.9849374E0,1.9830968E0,8.98615E0,1.1924447E1,4.1522845E2,2.9685533E0,7.675413E0,1.7449901E0,7.241159E0,7.7013583E0,4.223089E0,3.566243E2,5.860417E1,1.4882317E0,1.4803216E0,5.2428565E0,1.9983026E0,1.4907415E0,6.2106166E0,1.4873084E0,2.735781E0,2.6262427E2,9.400003E1,4.2408705E0,5.43633E1],"tree_param":{"num_deleted":"0","num_feature":"7","num_nodes":"33","size_leaf_vector":"1"}},{"base_weights":[-3.605558E-2,5.201486E-1,-5.6121476E-2,3.75935E-2,7.3241687E-1,-8.679983E-1,-3.543519E-2,5.2529293E-1,-4.248308E-2,-1.5481009E-2,9.766101E-1,1.4793655E-2,-1.200661E0,6.6432285E-1,-5.6329302E-2,-1.5124531E-2,4.691835E-2,2.6855087E-2,-2.5200656E-2,5.2262866E-3,1.1126624E0,3.7959963E-2,-3.68034E-2,-7.194474E-2,-1.6190432E-2,-1.6561069E-2,8.013978E-1,-9.428919E-2,1.3644636E-1,4.118055E-3,6.5641776E-2,5.0729014E-2,1.7729735E-2,-1.8483298E-3,-1.0942858E-2,-4.133282E-2,1.1578962E-2],"categories":[],"categories_nodes":[],"categories_segments":[],"categories_sizes":[],"default_left":[0,0,0,0,0,0,0,0,0,0,0,0,0,0,0,0,0,0,0,0,0,0,0,0,0,0,0,0,0,0,0,0,0,0,0,0,0],"id":5,"left_children":[1,3,5,7,9,11,13,15,-1,17,19,21,23,25,27,-1,-1,-1,-1,-1,29,-1,-1,-1,-1,-1,31,33,35,-1,-1,-1,-1,-1,-1,-1,-1],"loss_changes":[5.144887E0,1.6172867E0,7.414469E0,3.0251927E0,2.041974E0,3.239955E0,6.373144E0,1.810173E0,0E0,1.2738756E0,8.782115E-1,2.7894747E0,1.2013264E0,1.990622E0,3.0987103E0,0E0,0E0,0E0,0E0,0E0,1.3658848E0,0E0,0E0,0E0,0E0,0E0,7.2651577E-1,2.5118785E0,6.585269E0,0E0,0E0,0E0,0E0,0E0,0E0,0E0,0E0],"parents":[2147483647,0,0,1,1,2,2,3,3,4,4,5,5,6,6,7,7,9,9,10,10,11,11,12,12,13,13,14,14,20,20,26,26,27,27,28,28],"right_children":[2,4,6,8,10,12,14,16,-1,18,20,22,24,26,28,-1,-1,-1,-1,-1,30,-1,-1,-1,-1,-1,32,34,36,-1,-1,-1,-1,-1,-1,-1,-1],"split_conditions":[-8.64428E-3,-3.5062248E-3,-7.6398724E-3,-4.461968E-3,-1.2440097E-2,-2.740805E-1,-9.6446825E-3,-9.189442E-3,-4.248308E-2,1.7563235E-3,-2.6373985E-1,-2.544288E-3,3.819276E-3,-1.5623363E-2,2.3585252E-1,-1.5124531E-2,4.691835E-2,2.6855087E-2,-2.5200656E-2,5.2262866E-3,1E0,3.7959963E-2,-3.68034E-2,-7.194474E-2,-1.6190432E-2,-1.6561069E-2,-3.542203E-2,5.5290926E-2,-3.3878533E-3,4.118055E-3,6.5641776E-2,5.0729014E-2,1.7729735E-2,-1.8483298E-3,-1.0942858E-2,-4.133282E-2,1.1578962E-2],"split_indices":[4,3,4,3,4,2,3,3,0,5,2,3,5,3,2,0,0,0,0,0,6,0,0,0,0,0,2,2,3,0,0,0,0,0,0,0,0],"split_type":[0,0,0,0,0,0,0,0,0,0,0,0,0,0,0,0,0,0,0,0,0,0,0,0,0,0,0,0,0,0,0,0,0,0,0,0,0],"sum_hessian":[4.5736545E2,1.5057812E1,4.4230765E2,4.959762E0,1.009805E1,9.972085E0,4.3233557E2,3.4637773E0,1.4959848E0,2.7160687E0,7.3819814E0,2.9908223E0,6.981263E0,1.164201E1,4.2069354E2,1.2421892E0,2.2215881E0,1.2278349E0,1.4882338E0,1.2348658E0,6.1471157E0,1.4962919E0,1.4945304E0,4.9857073E0,1.9955558E0,1.2375576E0,1.0404452E1,3.519092E2,6.878435E1,1.229624E0,4.9174914E0,6.183415E0,4.221037E0,2.4189352E2,1.10015686E2,5.492284E0,6.329206E1],"tree_param":{"num_deleted":"0","num_feature":"7","num_nodes":"37","size_leaf_vector":"1"}},{"base_weights":[1.4778219E-2,2.9172352E-2,-9.081433E-1,1.861211E-1,-5.437982E-2,-6.547456E-2,1.6984649E-2,1.11814275E-1,5.419239E-1,-8.5767545E-2,4.8696673E-1,1.7059286E-1,-4.6914962E-1,7.9275733E-1,3.0367982E-3,4.4784628E-2,-1.00487925E-1,1.0515386E0,-8.367993E-2,1.6337039E-2,-2.2329716E-3,-5.6650836E-2,9.543103E-3,1.5540682E-2,5.6830864E-2,1.3837506E-2,-4.360997E-2,-2.334616E-2,-3.248157E-3,6.1612427E-2,1.9699177E-2,-1.7252827E-2,3.668995E-2],"categories":[],"categories_nodes":[],"categories_segments":[],"categories_sizes":[],"default_left":[0,0,0,0,0,0,0,0,0,0,0,0,0,0,0,0,0,0,0,0,0,0,0,0,0,0,0,0,0,0,0,0,0],"id":6,"left_children":[1,3,5,7,9,-1,-1,11,13,15,17,19,21,23,25,-1,27,29,31,-1,-1,-1,-1,-1,-1,-1,-1,-1,-1,-1,-1,-1,-1],"loss_changes":[6.048548E0,5.8759685E0,3.9467769E0,4.053986E0,5.015026E0,0E0,0E0,4.5193458E0,3.5967503E0,4.0991607E0,5.303961E0,4.0072737E0,5.5666122E0,2.6571484E0,2.5079193E0,0E0,3.5403416E0,4.9032593E-1,2.1715295E0,0E0,0E0,0E0,0E0,0E0,0E0,0E0,0E0,0E0,0E0,0E0,0E0,0E0,0E0],"parents":[2147483647,0,0,1,1,2,2,3,3,4,4,7,7,8,8,9,9,10,10,11,11,12,12,13,13,14,14,16,16,17,17,18,18],"right_children":[2,4,6,8,10,-1,-1,12,14,16,18,20,22,24,26,-1,28,30,32,-1,-1,-1,-1,-1,-1,-1,-1,-1,-1,-1,-1,-1,-1],"split_conditions":[3.7919295E-3,-1.318887E-3,3.4345E-3,-2.0349047E-3,8.764446E-3,-6.547456E-2,1.6984649E-2,-2.418531E-3,5.5081106E-4,-4.1045416E-3,-1.8282549E-3,9.1621437E-4,-1.3091274E-4,-9.902063E-4,3.8160703E-3,4.4784628E-2,-6.231108E-3,1.2791161E-2,3.6923434E-3,1.6337039E-2,-2.2329716E-3,-5.6650836E-2,9.543103E-3,1.5540682E-2,5.6830864E-2,1.3837506E-2,-4.360997E-2,-2.334616E-2,-3.248157E-3,6.1612427E-2,1.9699177E-2,-1.7252827E-2,3.668995E-2],"split_indices":[1,5,5,5,5,0,0,5,1,1,4,3,3,1,4,0,4,5,3,0,0,0,0,0,0,0,0,0,0,0,0,0,0],"split_type":[0,0,0,0,0,0,0,0,0,0,0,0,0,0,0,0,0,0,0,0,0,0,0,0,0,0,0,0,0,0,0,0,0],"sum_hessian":[4.5230917E2,4.4631668E2,5.992484E0,1.5462793E2,2.9168875E2,4.496759E0,1.495725E0,1.2900122E2,2.5626713E1,2.7649872E2,1.5190058E1,1.1779024E2,1.1210977E1,1.7165607E1,8.461104E0,3.201423E0,2.7329727E2,7.21206E0,7.977998E0,6.796747E1,4.9822777E1,5.231877E0,5.9790998E0,7.940433E0,9.225175E0,6.966321E0,1.4947838E0,2.3080477E1,2.5021681E2,4.9717364E0,2.2403235E0,6.4830437E0,1.4949541E0],"tree_param":{"num_deleted":"0","num_feature":"7","num_nodes":"33","size_leaf_vector":"1"}},{"base_weights":[-4.4036596E-3,1.8251209E-1,-9.013794E-2,2.969964E-1,-1.9459374E-1,4.379826E-1,-1.1131364E-1,2.2841673E-1,9.7057134E-1,-8.3597076E-1,2.452315E-2,-2.3148909E-1,7.5455785E-1,-9.525541E-1,-8.9793354E-2,1.6106147E-1,8.915465E-1,5.630199E-2,1.1581154E-2,-1.0181177E0,7.226761E-3,-6.542942E-2,1.719199E-1,2.755622E-2,-3.329804E-2,-1.6008528E-2,9.7909725E-1,-5.2431915E-3,-1.1923975E0,-3.9974952E-1,-5.1519234E-2,-7.095124E-3,1.5132806E-2,5.7600122E-2,1.9993437E-2,-1.3885625E-2,-5.6079138E-2,1.673162E-2,-4.551324E-2,4.8714275E-3,5.700266E-2,-6.962835E-2,-1.8807676E-2,-4.8242897E-2,-1.0337957E-2,-1.5872575E-2,9.746273E-4],"categories":[],"categories_nodes":[],"categories_segments":[],"categories_sizes":[],"default_left":[0,0,0,0,0,0,0,0,0,0,0,0,0,0,0,0,0,0,0,0,0,0,0,0,0,0,0,0,0,0,0,0,0,0,0,0,0,0,0,0,0,0,0,0,0,0,0],"id":7,"left_children":[1,3,5,7,9,11,13,15,17,19,21,23,25,27,29,31,33,-1,-1,35,-1,-1,37,-1,-1,-1,39,-1,41,43,45,-1,-1,-1,-1,-1,-1,-1,-1,-1,-1,-1,-1,-1,-1,-1,-1],"loss_changes":[7.342656E0,6.2784257E0,3.5612528E0,4.902424E0,4.821227E0,2.783793E0,5.39579E0,4.411575E0,8.814192E-1,1.7057681E0,5.418952E0,1.9711448E0,2.387154E0,1.3892655E0,3.494797E0,4.0668488E0,7.153454E-1,0E0,0E0,2.6185226E-1,0E0,0E0,4.6513E0,0E0,0E0,0E0,9.325962E-1,0E0,4.0897655E-1,3.3363824E0,5.0087147E0,0E0,0E0,0E0,0E0,0E0,0E0,0E0,0E0,0E0,0E0,0E0,0E0,0E0,0E0,0E0,0E0],"parents":[2147483647,0,0,1,1,2,2,3,3,4,4,5,5,6,6,7,7,8,8,9,9,10,10,11,11,12,12,13,13,14,14,15,15,16,16,19,19,22,22,26,26,28,28,29,29,30,30],"right_children":[2,4,6,8,10,12,14,16,18,20,22,24,26,28,30,32,34,-1,-1,36,-1,-1,38,-1,-1,-1,40,-1,42,44,46,-1,-1,-1,-1,-1,-1,-1,-1,-1,-1,-1,-1,-1,-1,-1,-1],"split_conditions":[-1.5798878E-3,3.1056728E-3,-8.64428E-3,2.840742E-1,-7.3822234E-3,-1.2440097E-2,-7.6398724E-3,-1.9095651E-3,-3.4245022E-3,1.0416392E-2,3.3230255E-3,-1.5623363E-2,-2.6373985E-1,-2.9544094E-1,-7.90079E-4,-3.3119381E-3,4.5621595E-3,5.630199E-2,1.1581154E-2,-7.8022376E-2,7.226761E-3,-6.542942E-2,6.431915E-3,2.755622E-2,-3.329804E-2,-1.6008528E-2,4.510213E-3,-5.2431915E-3,3.999639E-3,-1.6469668E-1,3.3523724E-3,-7.095124E-3,1.5132806E-2,5.7600122E-2,1.9993437E-2,-1.3885625E-2,-5.6079138E-2,1.673162E-2,-4.551324E-2,4.8714275E-3,5.700266E-2,-6.962835E-2,-1.8807676E-2,-4.8242897E-2,-1.0337957E-2,-1.5872575E-2,9.746273E-4],"split_indices":[5,4,4,2,5,4,4,5,5,4,4,4,2,2,5,4,0,0,0,2,0,0,0,0,0,0,0,0,5,2,0,0,0,0,0,0,0,0,0,0,0,0,0,0,0,0,0],"split_type":[0,0,0,0,0,0,0,0,0,0,0,0,0,0,0,0,0,0,0,0,0,0,0,0,0,0,0,0,0,0,0,0,0,0,0,0,0,0,0,0,0,0,0,0,0,0,0],"sum_hessian":[4.5617096E2,1.4308714E2,3.1308383E2,1.09927155E2,3.315999E1,1.1310763E1,3.0177307E2,1.0098457E2,8.942581E0,7.7270274E0,2.5432962E1,3.7176669E0,7.5930963E0,6.448146E0,2.9532492E2,9.2801445E1,8.1831255E0,6.955386E0,1.9871945E0,6.484123E0,1.2429042E0,1.7477407E0,2.3685223E1,1.2312766E0,2.48639E0,1.2386343E0,6.3544617E0,1.7390289E0,4.709117E0,3.1421238E1,2.639037E2,2.955714E1,6.3244305E1,4.4714603E0,3.7116652E0,1.2467055E0,5.2374177E0,2.1189972E1,2.4952497E0,1.2287959E0,5.125666E0,3.2147014E0,1.4944155E0,6.980791E0,2.4440447E1,5.4886944E1,2.0901674E2],"tree_param":{"num_deleted":"0","num_feature":"7","num_nodes":"47","size_leaf_vector":"1"}},{"base_weights":[-1.266046E-2,7.750141E-1,-3.7195336E-2,9.6834905E-2,1.1153196E0,-9.5568174E-1,-1.3327812E-2,5.6832165E-1,-3.0876786E-2,1.366205E-2,1.2437319E0,1.6045561E-3,-1.1400381E0,7.9516274E-1,-2.853136E-2,4.761441E-2,2.3796533E-3,7.092457E-2,2.060532E-2,-1.509167E-2,-6.618413E-2,-2.4156434E-2,1.1633592E0,-7.938846E-1,-8.133227E-3,6.7838594E-2,9.785539E-3,-5.969062E-2,-3.7049365E-3,-2.9768418E-3,9.9321185E-3],"categories":[],"categories_nodes":[],"categories_segments":[],"categories_sizes":[],"default_left":[0,0,0,0,0,0,0,0,0,0,0,0,0,0,0,0,0,0,0,0,0,0,0,0,0,0,0,0,0,0,0],"id":8,"left_children":[1,3,5,7,9,11,13,15,-1,-1,17,-1,19,21,23,-1,-1,-1,-1,-1,-1,-1,25,27,29,-1,-1,-1,-1,-1,-1],"loss_changes":[8.784589E0,3.0611525E0,9.640308E0,2.2651868E0,6.386137E-1,2.064929E0,5.3106427E0,7.4333394E-1,0E0,0E0,5.155754E-1,0E0,1.0495777E0,4.3156414E0,6.6007967E0,0E0,0E0,0E0,0E0,0E0,0E0,0E0,9.4818974E-1,3.0712657E0,4.404221E0,0E0,0E0,0E0,0E0,0E0,0E0],"parents":[2147483647,0,0,1,1,2,2,3,3,4,4,5,5,6,6,7,7,10,10,12,12,13,13,14,14,22,22,23,23,24,24],"right_children":[2,4,6,8,10,12,14,16,-1,-1,18,-1,20,22,24,-1,-1,-1,-1,-1,-1,-1,26,28,30,-1,-1,-1,-1,-1,-1],"split_conditions":[-9.189442E-3,-2.7763068E-3,-7.6398724E-3,-4.461968E-3,-2.6373985E-1,-8.64428E-3,-6.96027E-3,7.4607357E-3,-3.0876786E-2,1.366205E-2,5.5290926E-2,1.6045561E-3,-2.740805E-1,-3.6694795E-1,-6.231108E-3,4.761441E-2,2.3796533E-3,7.092457E-2,2.060532E-2,-1.509167E-2,-6.618413E-2,-2.4156434E-2,8.041455E-2,5.1742806E-3,3.6923434E-3,6.7838594E-2,9.785539E-3,-5.969062E-2,-3.7049365E-3,-2.9768418E-3,9.9321185E-3],"split_indices":[4,3,4,3,2,4,4,0,0,0,2,0,2,2,4,0,0,0,0,0,0,0,2,0,3,0,0,0,0,0,0],"split_type":[0,0,0,0,0,0,0,0,0,0,0,0,0,0,0,0,0,0,0,0,0,0,0,0,0,0,0,0,0,0,0],"sum_hessian":[4.520679E2,1.2731877E1,4.39336E2,4.683299E0,8.048578E0,1.0138493E1,4.291975E2,2.9444184E0,1.7388806E0,1.4788281E0,6.56975E0,1.7245206E0,8.413972E0,6.975121E0,4.222224E2,1.2177398E0,1.7266787E0,4.845765E0,1.7239848E0,1.9872384E0,6.4267335E0,1.4900095E0,5.4851117E0,9.976518E0,4.1224588E2,4.2362423E0,1.2488692E0,5.989862E0,3.9866557E0,3.3073782E2,8.1508064E1],"tree_param":{"num_deleted":"0","num_feature":"7","num_nodes":"31","size_leaf_vector":"1"}},{"base_weights":[-2.2178679E-3,6.312982E-1,-1.593984E-2,-5.160555E-3,7.797673E-1,4.6297505E-1,-3.2261472E-2,4.8926783E-1,5.6002405E-2,9.8843295E-3,9.6323544E-1,-1.3964218E-2,-3.9028957E-1,8.0369735E-1,-2.5826872E-3,-3.7727398E-1,5.6725806E-1,3.0124558E-3,6.265703E-2,-5.936064E-2,1.3010383E-1,-7.085921E-1,2.3587662E-1,5.4706912E-2,4.453982E-3,1.588898E-2,-4.5556333E-2,5.178362E-2,-6.3428218E-3,-2.5263954E-2,-1.580303E-3,2.6802102E-2,-1.258164E-3,-2.3316858E-2,-6.2280893E-2,-4.437063E-3,3.0267645E-2],"categories":[],"categories_nodes":[],"categories_segments":[],"categories_sizes":[],"default_left":[0,0,0,0,0,0,0,0,0,0,0,0,0,0,0,0,0,0,0,0,0,0,0,0,0,0,0,0,0,0,0,0,0,0,0,0,0],"id":9,"left_children":[1,3,5,-1,7,9,11,13,-1,15,17,19,21,23,-1,25,27,-1,-1,29,31,33,35,-1,-1,-1,-1,-1,-1,-1,-1,-1,-1,-1,-1,-1,-1],"loss_changes":[3.9107654E0,1.1205864E0,3.4556432E0,0E0,2.4783611E-1,3.2934425E0,2.7891982E0,1.0822064E0,0E0,2.082105E0,1.7347603E0,2.6689103E0,4.2938004E0,7.1819925E-1,0E0,2.4079232E0,1.4149597E0,0E0,0E0,3.8218007E0,6.1782002E0,1.2374382E0,9.806175E-1,0E0,0E0,0E0,0E0,0E0,0E0,0E0,0E0,0E0,0E0,0E0,0E0,0E0,0E0],"parents":[2147483647,0,0,1,1,2,2,4,4,5,5,6,6,7,7,9,9,10,10,11,11,12,12,13,13,15,15,16,16,19,19,20,20,21,21,22,22],"right_children":[2,4,6,-1,8,10,12,14,-1,16,18,20,22,24,-1,26,28,-1,-1,30,32,34,36,-1,-1,-1,-1,-1,-1,-1,-1,-1,-1,-1,-1,-1,-1],"split_conditions":[-1.128999E-2,-9.189442E-3,-8.64428E-3,-5.160555E-3,5.01801E-3,-1.128999E-2,7.700333E-3,-8.452183E-4,5.6002405E-2,6.311488E-3,-2.2375581E-3,5.1421425E-3,1.395077E-1,7.634743E-3,-2.5826872E-3,-1.2440097E-2,8.284452E-3,3.0124558E-3,6.265703E-2,-6.045324E-3,-1.3989793E-1,6.462497E-2,1.0416392E-2,5.4706912E-2,4.453982E-3,1.588898E-2,-4.5556333E-2,5.178362E-2,-6.3428218E-3,-2.5263954E-2,-1.580303E-3,2.6802102E-2,-1.258164E-3,-2.3316858E-2,-6.2280893E-2,-4.437063E-3,3.0267645E-2],"split_indices":[4,3,3,0,3,3,4,3,0,0,4,0,2,0,0,3,0,0,0,4,2,2,4,0,0,0,0,0,0,0,0,0,0,0,0,0,0],"split_type":[0,0,0,0,0,0,0,0,0,0,0,0,0,0,0,0,0,0,0,0,0,0,0,0,0,0,0,0,0,0,0,0,0,0,0,0,0],"sum_hessian":[4.4771307E2,8.537709E0,4.3917538E2,1.4868358E0,7.050873E0,1.3572111E1,4.2560327E2,5.11878E0,1.9320931E0,7.656921E0,5.9151897E0,4.0589856E2,1.97047E1,2.9298878E0,2.1888921E0,4.709069E0,2.9478521E0,1.7310865E0,4.1841035E0,3.090908E2,9.6807785E1,1.2976599E1,6.728102E0,1.7056011E0,1.2242867E0,2.2215056E0,2.4875631E0,1.4662766E0,1.4815756E0,1.7102854E1,2.919879E2,2.6105045E1,7.0702736E1,1.0230114E1,2.7464845E0,3.9859276E0,2.7421746E0],"tree_param":{"num_deleted":"0","num_feature":"7","num_nodes":"37","size_leaf_vector":"1"}},{"base_weights":[1.2419944E-2,1.0680122E-1,-9.0194285E-2,5.2628267E-1,5.048105E-2,-5.972041E-1,-3.9916277E-2,6.1080945E-1,-3.5209324E-2,-1.8827118E-2,6.0049945E-1,-1.2062817E0,-4.2851437E-2,-1.3033217E-1,1.1728974E-1,3.036316E-1,9.230161E-1,-8.736013E-1,4.696515E-3,-2.5630897E-1,7.635616E-1,-1.3428974E-2,-6.5954916E-2,7.2960746E-1,-5.700779E-1,-5.4853406E-2,-8.974288E-1,5.333285E-2,7.921114E-1,-1.3048186E-2,3.845544E-2,6.6216625E-2,1.4720243E-2,9.547904E-3,-6.3980855E-2,-1.3320026E-2,3.0581893E-3,-4.0860515E-2,3.3500653E-2,4.3440707E-2,-6.2828264E-3,6.555628E-3,5.057143E-2,-5.0409477E-2,-3.88465E-3,-3.3029087E-2,2.2539047E-3,-5.683578E-2,-2.1082421E-3,1.4997034E-2,-1.1988494E-2,5.5885512E-2,-1.4181142E-2],"categories":[],"categories_nodes":[],"categories_segments":[],"categories_sizes":[],"default_left":[0,0,0,0,0,0,0,0,0,0,0,0,0,0,0,0,0,0,0,0,0,0,0,0,0,0,0,0,0,0,0,0,0,0,0,0,0,0,0,0,0,0,0,0,0,0,0,0,0,0,0,0,0],"id":10,"left_children":[1,3,5,7,9,11,13,15,-1,17,19,21,23,25,27,29,31,33,35,37,39,-1,-1,41,43,45,47,49,51,-1,-1,-1,-1,-1,-1,-1,-1,-1,-1,-1,-1,-1,-1,-1,-1,-1,-1,-1,-1,-1,-1,-1,-1],"loss_changes":[4.3735867E0,5.529416E0,5.4931226E0,3.3143477E0,7.9572144E0,6.5168185E0,2.8292181E0,2.2596254E0,0E0,3.7457604E0,3.4589472E0,6.2241936E-1,4.9859467E0,7.2552342E0,3.1003056E0,4.100667E0,2.7998924E0,2.400853E0,2.8038151E0,2.8768387E0,1.9691963E0,0E0,0E0,7.091539E-1,1.4814742E0,7.046652E0,2.2516012E0,4.9567857E0,2.4995596E0,0E0,0E0,0E0,0E0,0E0,0E0,0E0,0E0,0E0,0E0,0E0,0E0,0E0,0E0,0E0,0E0,0E0,0E0,0E0,0E0,0E0,0E0,0E0,0E0],"parents":[2147483647,0,0,1,1,2,2,3,3,4,4,5,5,6,6,7,7,9,9,10,10,11,11,12,12,13,13,14,14,15,15,16,16,17,17,18,18,19,19,20,20,23,23,24,24,25,25,26,26,27,27,28,28],"right_children":[2,4,6,8,10,12,14,16,-1,18,20,22,24,26,28,30,32,34,36,38,40,-1,-1,42,44,46,48,50,52,-1,-1,-1,-1,-1,-1,-1,-1,-1,-1,-1,-1,-1,-1,-1,-1,-1,-1,-1,-1,-1,-1,-1,-1],"split_conditions":[6.030179E-4,-5.3640027E-3,9.683223E-4,2.3014125E-1,2.5910705E-1,-4.0333427E-4,1.1687411E-1,-7.3545123E-3,-3.5209324E-2,-4.7084657E-3,-1.7115108E-3,-3.5551876E-1,1.5937563E-3,9.258019E-2,8.315576E-3,5.304661E-3,-8.8446125E-2,-2.6989891E-3,-2.381475E-1,4.2573903E-3,5.9655784E-3,-1.3428974E-2,-6.5954916E-2,3.8160877E-3,3.8924295E-2,3.4282114E-3,3.1244059E-3,3.368262E-3,5.1874206E-3,-1.3048186E-2,3.845544E-2,6.6216625E-2,1.4720243E-2,9.547904E-3,-6.3980855E-2,-1.3320026E-2,3.0581893E-3,-4.0860515E-2,3.3500653E-2,4.3440707E-2,-6.2828264E-3,6.555628E-3,5.057143E-2,-5.0409477E-2,-3.88465E-3,-3.3029087E-2,2.2539047E-3,-5.683578E-2,-2.1082421E-3,1.4997034E-2,-1.1988494E-2,5.5885512E-2,-1.4181142E-2],"split_indices":[4,3,4,2,2,3,2,3,0,3,3,2,3,2,4,0,2,4,2,0,3,0,0,0,2,0,3,4,3,0,0,0,0,0,0,0,0,0,0,0,0,0,0,0,0,0,0,0,0,0,0,0,0],"split_type":[0,0,0,0,0,0,0,0,0,0,0,0,0,0,0,0,0,0,0,0,0,0,0,0,0,0,0,0,0,0,0,0,0,0,0,0,0,0,0,0,0,0,0,0,0,0,0,0,0,0,0,0,0],"sum_hessian":[4.4959534E2,2.341713E2,2.1542404E2,2.6730896E1,2.074404E2,1.8453959E1,1.969701E2,2.5483883E1,1.2470127E0,1.8508366E2,2.2356739E1,8.232613E0,1.0221345E1,1.2515757E2,7.181252E1,1.3839667E1,1.1644216E1,3.9892645E0,1.810944E2,3.4830794E0,1.8873661E1,1.2471658E0,6.9854474E0,3.9906447E0,6.2307E0,1.1492135E2,1.0236223E1,6.6581245E1,5.2312703E0,6.45252E0,7.3871474E0,6.431484E0,5.212731E0,1.2476491E0,2.7416153E0,3.0577122E1,1.5051727E2,2.2428136E0,1.2402658E0,1.6896633E1,1.9770283E0,1.746625E0,2.2440197E0,2.742727E0,3.487973E0,1.5479999E1,9.9441345E1,7.7412767E0,2.4949462E0,3.614587E1,3.0435379E1,3.985834E0,1.2454367E0],"tree_param":{"num_deleted":"0","num_feature":"7","num_nodes":"53","size_leaf_vector":"1"}},{"base_weights":[3.0022025E-2,8.2745594E-1,1.4945115E-2,5.9148572E-2,1.1310955E0,-7.846461E-2,9.2418104E-2,-1.7239286E-2,2.2135554E-2,6.850591E-2,6.4114467E-3,2.4378915E-1,-1.9690482E-1,1.3280254E-3,2.6473224E-1,-5.4942036E-1,3.3018225E-1,-7.2262764E-1,-6.3785E-2,8.9939594E-2,-2.450676E-1,6.5080844E-2,1.9985875E-1,-4.9217198E-2,4.3002157E-3,1.9513806E-2,-3.6885828E-2,-2.8339788E-2,-7.109556E-2,-1.799061E-2,5.0343713E-3,-1.526948E-2,8.965067E-3,5.4051172E-2,-1.816956E-2,1.5714161E-2,-2.5132073E-3],"categories":[],"categories_nodes":[],"categories_segments":[],"categories_sizes":[],"default_left":[0,0,0,0,0,0,0,0,0,0,0,0,0,0,0,0,0,0,0,0,0,0,0,0,0,0,0,0,0,0,0,0,0,0,0,0,0],"id":11,"left_children":[1,3,5,7,9,11,13,-1,-1,-1,-1,15,17,19,21,23,25,27,29,31,33,-1,35,-1,-1,-1,-1,-1,-1,-1,-1,-1,-1,-1,-1,-1,-1],"loss_changes":[5.3833575E0,1.8715668E0,3.202125E0,6.807914E-1,1.2386956E0,7.708069E0,3.7947443E0,0E0,0E0,0E0,0E0,3.9083028E0,1.026322E1,3.4974284E0,5.3639283E0,1.6646124E0,3.4753256E0,2.4269161E0,5.8127136E0,4.2164917E0,7.0412965E0,0E0,2.3016145E0,0E0,0E0,0E0,0E0,0E0,0E0,0E0,0E0,0E0,0E0,0E0,0E0,0E0,0E0],"parents":[2147483647,0,0,1,1,2,2,3,3,4,4,5,5,6,6,11,11,12,12,13,13,14,14,15,15,16,16,17,17,18,18,19,19,20,20,22,22],"right_children":[2,4,6,8,10,12,14,-1,-1,-1,-1,16,18,20,22,24,26,28,30,32,34,-1,36,-1,-1,-1,-1,-1,-1,-1,-1,-1,-1,-1,-1,-1,-1],"split_conditions":[-3.8735326E-3,-7.817238E-3,-1.3091274E-4,-2.8834185E-1,-1.6033123E-1,-1.071452E-3,1.2219277E-1,-1.7239286E-2,2.2135554E-2,6.850591E-2,6.4114467E-3,-2.9223696E-3,-5.737609E-4,5.207472E-4,1.3179824E-1,-5.6051505E-3,8.790435E-2,1.9076267E-2,-2.9894186E-4,-1.3852087E-3,-1.8272854E-1,6.5080844E-2,2.6872607E-3,-4.9217198E-2,4.3002157E-3,1.9513806E-2,-3.6885828E-2,-2.8339788E-2,-7.109556E-2,-1.799061E-2,5.0343713E-3,-1.526948E-2,8.965067E-3,5.4051172E-2,-1.816956E-2,1.5714161E-2,-2.5132073E-3],"split_indices":[1,4,3,2,2,1,2,0,0,0,0,1,1,1,2,3,2,2,4,1,2,0,4,0,0,0,0,0,0,0,0,0,0,0,0,0,0],"split_type":[0,0,0,0,0,0,0,0,0,0,0,0,0,0,0,0,0,0,0,0,0,0,0,0,0,0,0,0,0,0,0,0,0,0,0,0,0],"sum_hessian":[4.4778952E2,7.309322E0,4.404802E2,2.408876E0,4.900446E0,1.9969443E2,2.4078577E2,1.2225208E0,1.1863551E0,3.6615512E0,1.2388946E0,5.338512E1,1.4630931E2,1.5817679E2,8.260898E1,4.716992E0,4.866813E1,2.8667183E1,1.1764213E2,1.1680503E2,4.137176E1,3.7416463E0,7.886733E1,2.4743104E0,2.2426817E0,4.6676064E1,1.9920648E0,2.4923618E1,3.7435646E0,4.1592968E1,7.604916E1,2.1089468E1,9.571556E1,2.7225947E0,3.8649166E1,5.393638E1,2.4930952E1],"tree_param":{"num_deleted":"0","num_feature":"7","num_nodes":"37","size_leaf_vector":"1"}},{"base_weights":[1.6315283E-2,7.971858E-1,5.2575544E-3,2.0984253E-3,4.843375E-2,3.9595753E-1,-8.582887E-3,-3.8514953E-2,5.535328E-1,1.6027821E-2,-2.4695086E-1,-2.2657166E-1,7.6176727E-1,-1.3422266E-2,4.2184594E-1,-6.68411E-1,7.609511E-2,-2.381667E-2,7.6135406E-3,-5.2015875E-3,4.514939E-2,-2.3516805E-3,1.3420603E-2,3.3533312E-2,-9.483051E-3,-1.3726798E-2,-7.473122E-2,-4.234705E-2,1.23469485E-2],"categories":[],"categories_nodes":[],"categories_segments":[],"categories_sizes":[],"default_left":[0,0,0,0,0,0,0,0,0,0,0,0,0,0,0,0,0,0,0,0,0,0,0,0,0,0,0,0,0],"id":12,"left_children":[1,3,5,-1,-1,7,9,-1,11,13,15,17,19,21,23,25,27,-1,-1,-1,-1,-1,-1,-1,-1,-1,-1,-1,-1],"loss_changes":[3.8976686E0,7.756629E-1,2.4182656E0,0E0,0E0,3.2381105E0,2.5398917E0,0E0,2.4566784E0,4.6997457E0,5.567115E0,4.257703E-1,1.4789338E0,3.4906678E0,4.1753187E0,5.343907E0,3.9675624E0,0E0,0E0,0E0,0E0,0E0,0E0,0E0,0E0,0E0,0E0,0E0,0E0],"parents":[2147483647,0,0,1,1,2,2,5,5,6,6,8,8,9,9,10,10,11,11,12,12,13,13,14,14,15,15,16,16],"right_children":[2,4,6,-1,-1,8,10,-1,12,14,16,18,20,22,24,26,28,-1,-1,-1,-1,-1,-1,-1,-1,-1,-1,-1,-1],"split_conditions":[-4.1045416E-3,-1.174891E-2,-8.64428E-3,2.0984253E-3,4.843375E-2,-1.5623363E-2,6.8880543E-3,-3.8514953E-2,4.7533475E-3,2.2835287E-3,4.1903078E-4,1.8905614E-3,-3.3400357E-3,5.4913363E-3,5.024965E-3,-1.9160525E-3,-2.1543845E-3,-2.381667E-2,7.6135406E-3,-5.2015875E-3,4.514939E-2,-2.3516805E-3,1.3420603E-2,3.3533312E-2,-9.483051E-3,-1.3726798E-2,-7.473122E-2,-4.234705E-2,1.23469485E-2],"split_indices":[1,3,3,0,0,3,0,0,0,1,3,4,1,0,0,3,1,0,0,0,0,0,0,0,0,0,0,0,0],"split_type":[0,0,0,0,0,0,0,0,0,0,0,0,0,0,0,0,0,0,0,0,0,0,0,0,0,0,0,0,0],"sum_hessian":[4.5088373E2,5.3030343E0,4.455807E2,1.2116795E0,4.091355E0,1.4299972E1,4.3128073E2,1.2392799E0,1.3060692E1,3.91765E2,3.951569E1,2.7332213E0,1.0327471E1,3.6615985E2,2.5605175E1,1.6682226E1,2.2833464E1,1.4921464E0,1.2410749E0,1.4852141E0,8.842257E0,3.2788916E2,3.8270695E1,1.813099E1,7.474186E0,1.2198975E1,4.483251E0,2.9480932E0,1.988537E1],"tree_param":{"num_deleted":"0","num_feature":"7","num_nodes":"29","size_leaf_vector":"1"}},{"base_weights":[-1.9587371E-2,-2.1829458E-1,3.4561586E-2,-4.3077293E-1,2.791861E-2,1.1068918E0,1.9402927E-2,5.240457E-1,-5.5339074E-1,7.80158E-1,-5.1833488E-2,6.813871E-2,9.477166E-3,-2.137617E-2,3.3593604E-1,5.631388E-2,-2.1921857E-1,-6.5359645E-2,-6.594114E-1,6.2543206E-2,-4.9349326E-3,4.506473E-1,-1.5435658E-1,2.0647572E-2,-3.759453E-1,9.059771E-2,6.196299E-1,2.829869E-2,-4.17658E-2,-3.227741E-2,1.6991204E-2,-7.4599884E-3,-3.91461E-2,4.878503E-2,-2.6893584E-2,-1.8374851E-2,1.4651852E-2,1.3062914E-4,4.445794E-2,-9.86513E-3,-5.271473E-2,2.1086415E-2,-1.5452606E-2,5.6072574E-2,4.6571516E-3],"categories":[],"categories_nodes":[],"categories_segments":[],"categories_sizes":[],"default_left":[0,0,0,0,0,0,0,0,0,0,0,0,0,0,0,0,0,0,0,0,0,0,0,0,0,0,0,0,0,0,0,0,0,0,0,0,0,0,0,0,0,0,0,0,0],"id":13,"left_children":[1,3,5,7,9,11,13,15,17,19,21,-1,-1,23,25,-1,27,29,31,-1,-1,33,35,37,39,41,43,-1,-1,-1,-1,-1,-1,-1,-1,-1,-1,-1,-1,-1,-1,-1,-1,-1,-1],"loss_changes":[4.897531E0,5.110686E0,5.7979712E0,6.4219713E0,2.8052375E0,9.0890265E-1,4.577047E0,3.144858E0,2.3836231E0,1.9767275E0,2.2644305E0,0E0,0E0,4.6949625E0,2.760263E0,0E0,2.2795234E0,2.4480681E0,2.3043156E0,0E0,0E0,4.4045324E0,3.5530252E0,4.4177203E0,3.8375974E0,3.1569462E0,4.8082147E0,0E0,0E0,0E0,0E0,0E0,0E0,0E0,0E0,0E0,0E0,0E0,0E0,0E0,0E0,0E0,0E0,0E0,0E0],"parents":[2147483647,0,0,1,1,2,2,3,3,4,4,5,5,6,6,7,7,8,8,9,9,10,10,13,13,14,14,16,16,17,17,18,18,21,21,22,22,23,23,24,24,25,25,26,26],"right_children":[2,4,6,8,10,12,14,16,18,20,22,-1,-1,24,26,-1,28,30,32,-1,-1,34,36,38,40,42,44,-1,-1,-1,-1,-1,-1,-1,-1,-1,-1,-1,-1,-1,-1,-1,-1,-1,-1],"split_conditions":[3.4204053E-3,2.0867222E-4,-4.21863E-1,-5.0338E-3,2.2843913E-3,-1.3982143E-3,2.5538692E-1,3.2068465E-3,2.666719E-3,1.9696592E-3,5.543052E-4,6.813871E-2,9.477166E-3,1.794678E-3,1.6682745E-3,5.631388E-2,-1.5521628E-3,2.365126E-3,-1.1614157E-3,6.2543206E-2,-4.9349326E-3,3.0939605E-3,3.191583E-3,1.6682745E-3,1.9637805E-1,8.852785E-4,2.3194852E-3,2.829869E-2,-4.17658E-2,-3.227741E-2,1.6991204E-2,-7.4599884E-3,-3.91461E-2,4.878503E-2,-2.6893584E-2,-1.8374851E-2,1.4651852E-2,1.3062914E-4,4.445794E-2,-9.86513E-3,-5.271473E-2,2.1086415E-2,-1.5452606E-2,5.6072574E-2,4.6571516E-3],"split_indices":[0,3,2,3,0,1,2,0,0,3,3,0,0,1,1,0,1,0,1,0,0,0,0,1,2,1,1,0,0,0,0,0,0,0,0,0,0,0,0,0,0,0,0,0,0],"split_type":[0,0,0,0,0,0,0,0,0,0,0,0,0,0,0,0,0,0,0,0,0,0,0,0,0,0,0,0,0,0,0,0,0,0,0,0,0,0,0,0,0,0,0,0,0],"sum_hessian":[4.5346866E2,9.646081E1,3.5700784E2,5.1375183E1,4.508562E1,3.9724793E0,3.5303537E2,5.4741826E0,4.5901E1,3.479924E0,4.1605698E1,2.726421E0,1.2460583E0,3.1357043E2,3.9464943E1,2.739325E0,2.7348576E0,8.480464E0,3.7420536E1,1.9905311E0,1.4893928E0,6.4750338E0,3.513066E1,2.8118588E2,3.238455E1,2.1870605E1,1.7594337E1,1.2381896E0,1.496668E0,3.2432227E0,5.2372417E0,7.723482E0,2.9697056E1,4.2373343E0,2.2376993E0,2.3915695E1,1.1214968E1,2.7644833E2,4.737554E0,2.6655659E1,5.728888E0,1.1930404E1,9.940202E0,8.429595E0,9.164742E0],"tree_param":{"num_deleted":"0","num_feature":"7","num_nodes":"45","size_leaf_vector":"1"}},{"base_weights":[8.518094E-3,4.4787192E-1,-8.338652E-3,4.2951442E-2,1.6660409E-1,-8.763129E-1,1.0617302E-2,-4.4761187E-1,3.9010197E-1,4.3521463E-3,-1.1469113E0,-4.102182E-2,1.8519841E-1,-3.783276E-2,3.2993243E-3,1.4498216E-1,4.843683E-2,-6.6600814E-2,-6.275101E-3,-3.142961E-1,1.7410157E-2,9.1324824E-1,1.06691845E-1,-1.1764083E-2,3.227558E-2,-5.9483987E-3,-3.229958E-2,1.9814452E-2,-9.989677E-4,6.2462725E-2,-3.591594E-2,2.5926197E-2,-1.2351976E-3],"categories":[],"categories_nodes":[],"categories_segments":[],"categories_sizes":[],"default_left":[0,0,0,0,0,0,0,0,0,0,0,0,0,0,0,0,0,0,0,0,0,0,0,0,0,0,0,0,0,0,0,0,0],"id":14,"left_children":[1,3,5,-1,7,9,11,13,15,-1,17,19,21,-1,-1,23,-1,-1,-1,25,27,29,31,-1,-1,-1,-1,-1,-1,-1,-1,-1,-1],"loss_changes":[3.3593931E0,1.7950866E0,7.204906E0,0E0,1.7110798E0,2.5395417E0,3.8749125E0,5.978106E-1,1.0992924E0,0E0,1.2276077E0,5.3048053E0,5.509835E0,0E0,0E0,1.5443196E0,0E0,0E0,0E0,3.7142277E0,3.8945158E0,6.0597386E0,4.8660326E0,0E0,0E0,0E0,0E0,0E0,0E0,0E0,0E0,0E0,0E0],"parents":[2147483647,0,0,1,1,2,2,4,4,5,5,6,6,7,7,8,8,10,10,11,11,12,12,15,15,19,19,20,20,21,21,22,22],"right_children":[2,4,6,-1,8,10,12,14,16,-1,18,20,22,-1,-1,24,-1,-1,-1,26,28,30,32,-1,-1,-1,-1,-1,-1,-1,-1,-1,-1],"split_conditions":[-8.64428E-3,5.104915E-3,-7.6398724E-3,4.2951442E-2,5.67199E-3,-2.740805E-1,5.304661E-3,1.402076E-4,5.8406084E-3,4.3521463E-3,1.0230188E-1,-3.8314196E-3,-5.3920755E-3,-3.783276E-2,3.2993243E-3,-7.206724E-4,4.843683E-2,-6.6600814E-2,-6.275101E-3,-5.0338E-3,-2.595243E-3,7.532756E-3,-4.1626785E-3,-1.1764083E-2,3.227558E-2,-5.9483987E-3,-3.229958E-2,1.9814452E-2,-9.989677E-4,6.2462725E-2,-3.591594E-2,2.5926197E-2,-1.2351976E-3],"split_indices":[4,0,4,0,0,2,0,3,3,0,2,3,4,0,0,2,0,0,0,3,3,0,3,0,0,0,0,0,0,0,0,0,0],"split_type":[0,0,0,0,0,0,0,0,0,0,0,0,0,0,0,0,0,0,0,0,0,0,0,0,0,0,0,0,0,0,0,0,0],"sum_hessian":[4.5209537E2,1.5759918E1,4.3633545E2,5.567388E0,1.0192531E1,8.358941E0,4.279765E2,2.451786E0,7.7407446E0,1.9818168E0,6.3771243E0,3.3087302E2,9.710348E1,1.2352602E0,1.2165258E0,6.315814E0,1.4249307E0,5.141296E0,1.2358285E0,5.751384E1,2.733592E2,8.41667E0,8.8686806E1,3.8902416E0,2.4255724E0,3.7052883E1,2.0460958E1,2.3691126E1,2.4966806E2,7.173646E0,1.243024E0,2.0738894E1,6.794791E1],"tree_param":{"num_deleted":"0","num_feature":"7","num_nodes":"33","size_leaf_vector":"1"}},{"base_weights":[3.525335E-2,-2.7435862E-2,2.1107513E-1,1.7896365E-1,-1.3205345E-1,6.693096E-1,6.2243212E-2,3.940369E-1,-7.0532784E-2,-1.4795479E-1,4.9863633E-2,-1.9289644E-2,9.817985E-1,-2.4522173E-1,1.8812533E-1,9.484047E-2,7.0519334E-1,6.425159E-2,-3.9943048E-1,-1.3006163E-1,-7.9970527E-1,-4.495949E-1,6.946998E-1,1.1016577E0,-3.767126E-3,-7.977914E-1,-9.99914E-2,5.783231E-1,6.492299E-2,-2.272817E-3,3.609825E-2,5.4436613E-2,2.5813071E-2,-4.787288E-2,8.026711E-3,-3.0954862E-2,3.1978633E-2,-1.8042702E-3,-1.32385595E-2,-6.021155E-2,-1.8620357E-2,1.1354912E-2,-4.683513E-2,4.8715666E-2,1.2614413E-2,3.7523475E-2,6.610396E-2,-1.7509392E-2,-5.260561E-2,4.2141523E-2,-1.3641195E-2,4.1833322E-2,-2.320934E-2,2.1398306E-2,-1.2059821E-2],"categories":[],"categories_nodes":[],"categories_segments":[],"categories_sizes":[],"default_left":[0,0,0,0,0,0,0,0,0,0,0,0,0,0,0,0,0,0,0,0,0,0,0,0,0,0,0,0,0,0,0,0,0,0,0,0,0,0,0,0,0,0,0,0,0,0,0,0,0,0,0,0,0,0,0],"id":15,"left_children":[1,3,5,7,9,11,13,15,17,19,-1,21,23,25,27,29,31,33,35,37,39,41,43,45,-1,47,49,51,53,-1,-1,-1,-1,-1,-1,-1,-1,-1,-1,-1,-1,-1,-1,-1,-1,-1,-1,-1,-1,-1,-1,-1,-1,-1,-1],"loss_changes":[5.021879E0,7.286724E0,8.12389E0,6.121843E0,4.166418E0,6.3131742E0,3.5867488E0,5.625366E0,2.3939896E0,2.4797783E0,0E0,3.4189029E0,2.6348572E0,2.087579E0,3.109859E0,2.8769803E0,1.5985651E0,3.9662812E0,3.9719737E0,2.7354376E0,5.412781E-1,2.4924536E0,2.7316213E-1,4.1301346E-1,0E0,2.5511384E-1,3.9011917E0,4.5857644E0,5.758435E0,0E0,0E0,0E0,0E0,0E0,0E0,0E0,0E0,0E0,0E0,0E0,0E0,0E0,0E0,0E0,0E0,0E0,0E0,0E0,0E0,0E0,0E0,0E0,0E0,0E0,0E0],"parents":[2147483647,0,0,1,1,2,2,3,3,4,4,5,5,6,6,7,7,8,8,9,9,11,11,12,12,13,13,14,14,15,15,16,16,17,17,18,18,19,19,20,20,21,21,22,22,23,23,25,25,26,26,27,27,28,28],"right_children":[2,4,6,8,10,12,14,16,18,20,-1,22,24,26,28,30,32,34,36,38,40,42,44,46,-1,48,50,52,54,-1,-1,-1,-1,-1,-1,-1,-1,-1,-1,-1,-1,-1,-1,-1,-1,-1,-1,-1,-1,-1,-1,-1,-1,-1,-1],"split_conditions":[5.239054E-3,-1.3791566E-3,-1.6469668E-1,4.1043353E-3,1.0416392E-2,-1.695867E-3,-6.879797E-2,-3.5568294E-3,2.4657054E-3,5.104915E-3,4.9863633E-2,-2.192087E-1,5.3962846E-3,-5.284439E-3,-4.0962896E-3,3.9361785E-3,3.0664206E-3,-8.679091E-3,-1.8672122E-3,2.3624399E-3,-1.8847778E-3,-8.928602E-4,-8.302583E-3,4.1903078E-4,-3.767126E-3,9.943984E-5,-3.3468634E-3,5.030937E-3,5.9936135E-3,-2.272817E-3,3.609825E-2,5.4436613E-2,2.5813071E-2,-4.787288E-2,8.026711E-3,-3.0954862E-2,3.1978633E-2,-1.8042702E-3,-1.32385595E-2,-6.021155E-2,-1.8620357E-2,1.1354912E-2,-4.683513E-2,4.8715666E-2,1.2614413E-2,3.7523475E-2,6.610396E-2,-1.7509392E-2,-5.260561E-2,4.2141523E-2,-1.3641195E-2,4.1833322E-2,-2.320934E-2,2.1398306E-2,-1.2059821E-2],"split_indices":[0,5,2,0,4,5,2,5,3,0,0,2,4,5,3,0,0,5,5,5,3,3,3,3,0,4,5,5,0,0,0,0,0,0,0,0,0,0,0,0,0,0,0,0,0,0,0,0,0,0,0,0,0,0,0],"split_type":[0,0,0,0,0,0,0,0,0,0,0,0,0,0,0,0,0,0,0,0,0,0,0,0,0,0,0,0,0,0,0,0,0,0,0,0,0,0,0,0,0,0,0,0,0,0,0,0,0,0,0,0,0,0,0],"sum_hessian":[4.5409256E2,3.3536295E2,1.18729614E2,1.1256782E2,2.2279512E2,2.8251074E1,9.047854E1,6.0143246E1,5.2424572E1,2.2055856E2,2.2365594E0,9.111431E0,1.9139643E1,2.6007538E1,6.4471E1,3.1326069E1,2.8817177E1,3.77564E1,1.466817E1,2.1583264E2,4.7259154E0,5.9161863E0,3.1952453E0,1.7152744E1,1.9868989E0,4.477676E0,2.1529863E1,1.4584838E1,4.988616E1,2.6357117E1,4.9689517E0,7.9387207E0,2.0878456E1,2.4813333E0,3.527507E1,1.2441849E1,2.226321E0,1.2788516E2,8.794748E1,1.4936355E0,3.2322795E0,2.6996279E0,3.2165585E0,1.2211648E0,1.9740804E0,8.312878E0,8.839866E0,2.4835649E0,1.9941111E0,2.7347736E0,1.879509E1,1.1846595E1,2.7382429E0,2.2639156E1,2.7247005E1],"tree_param":{"num_deleted":"0","num_feature":"7","num_nodes":"55","size_leaf_vector":"1"}},{"base_weights":[5.470168E-2,3.585321E-3,3.8373432E-1,8.0465424E-1,-1.2589962E-2,-4.5803228E-1,4.7693154E-1,-1.9224694E-2,1.0884739E0,1.4244586E-1,-6.0181472E-2,-9.245184E-1,1.3164821E-1,9.8374844E-1,2.7561894E-1,6.551045E-2,9.3657365E-3,7.187561E-2,6.719177E-1,-8.829497E-1,-1.1063522E-2,-9.9469945E-3,-6.037833E-2,3.2911684E-2,-1.9715121E-2,6.299757E-1,1.2872089E0,-9.2678E-1,3.7911853E-1,1.0313774E-2,-1.355683E-2,-2.3552634E-2,5.2100386E-2,-2.117844E-3,-5.5327155E-2,-1.5441631E-2,1.7627835E-3,4.4505708E-2,-1.4197866E-2,7.449018E-2,2.0395238E-2,-1.2824478E-2,-5.9261926E-2,-1.6265264E-2,2.2984501E-2],"categories":[],"categories_nodes":[],"categories_segments":[],"categories_sizes":[],"default_left":[0,0,0,0,0,0,0,0,0,0,0,0,0,0,0,0,0,0,0,0,0,0,0,0,0,0,0,0,0,0,0,0,0,0,0,0,0,0,0,0,0,0,0,0,0],"id":16,"left_children":[1,3,5,7,9,11,13,-1,15,17,19,21,23,25,27,-1,-1,29,31,33,35,-1,-1,-1,-1,37,39,41,43,-1,-1,-1,-1,-1,-1,-1,-1,-1,-1,-1,-1,-1,-1,-1,-1],"loss_changes":[7.5048532E0,5.028507E0,4.9255724E0,3.0108519E0,2.8168888E0,1.9072522E0,5.290468E0,0E0,1.0457978E0,3.3030643E0,1.1787552E1,5.296581E-1,1.2960044E0,8.1095886E-1,5.37941E0,0E0,0E0,3.7561498E0,4.902267E0,3.041686E0,3.8243337E0,0E0,0E0,0E0,0E0,2.3767986E0,6.7019176E-1,3.010404E-1,2.3012018E0,0E0,0E0,0E0,0E0,0E0,0E0,0E0,0E0,0E0,0E0,0E0,0E0,0E0,0E0,0E0,0E0],"parents":[2147483647,0,0,1,1,2,2,3,3,4,4,5,5,6,6,8,8,9,9,10,10,11,11,12,12,13,13,14,14,17,17,18,18,19,19,20,20,25,25,26,26,27,27,28,28],"right_children":[2,4,6,8,10,12,14,-1,16,18,20,22,24,26,28,-1,-1,30,32,34,36,-1,-1,-1,-1,38,40,42,44,-1,-1,-1,-1,-1,-1,-1,-1,-1,-1,-1,-1,-1,-1,-1,-1],"split_conditions":[2.5538692E-1,-3.8735326E-3,-3.5971983E-3,-1.2440097E-2,-1.071452E-3,1.488262E-4,8.852785E-4,-1.9224694E-2,-1.279204E-1,-1.1749979E-3,-9.1304304E-4,4.0446976E-3,1.9308513E-3,3.8065664E-3,9.605552E-4,6.551045E-2,9.3657365E-3,-9.027462E-2,3.0804428E-3,-1.0409801E-3,-4.91227E-3,-9.9469945E-3,-6.037833E-2,3.2911684E-2,-1.9715121E-2,3.7091514E-3,3.7684513E-3,4.1903078E-4,2.4673406E-3,1.0313774E-2,-1.355683E-2,-2.3552634E-2,5.2100386E-2,-2.117844E-3,-5.5327155E-2,-1.5441631E-2,1.7627835E-3,4.4505708E-2,-1.4197866E-2,7.449018E-2,2.0395238E-2,-1.2824478E-2,-5.9261926E-2,-1.6265264E-2,2.2984501E-2],"split_indices":[2,1,3,3,1,5,1,0,2,1,1,0,5,0,1,0,0,2,0,1,5,0,0,0,0,0,3,3,0,0,0,0,0,0,0,0,0,0,0,0,0,0,0,0,0],"split_type":[0,0,0,0,0,0,0,0,0,0,0,0,0,0,0,0,0,0,0,0,0,0,0,0,0,0,0,0,0,0,0,0,0,0,0,0,0,0,0,0,0,0,0,0,0],"sum_hessian":[4.4529596E2,3.8629465E2,5.9001312E1,6.6809244E0,3.7961374E2,5.49104E0,5.3510273E1,1.2189701E0,5.461954E0,8.869256E1,2.9092117E2,2.7487342E0,2.7423058E0,1.4107388E1,3.9402885E1,4.019114E0,1.4428402E0,7.92637E1,9.428855E0,1.5432772E1,2.754884E2,1.2492356E0,1.4994986E0,1.2446458E0,1.4976602E0,7.933973E0,6.173415E0,2.4924614E0,3.6910423E1,5.7235992E1,2.2027714E1,2.239542E0,7.1893125E0,3.4924493E0,1.1940323E1,3.6321743E1,2.3916666E2,6.1963334E0,1.7376392E0,4.453106E0,1.720309E0,1.2480721E0,1.2443892E0,3.4767013E0,3.343372E1],"tree_param":{"num_deleted":"0","num_feature":"7","num_nodes":"45","size_leaf_vector":"1"}},{"base_weights":[2.6417132E-3,1.9978526E-1,-4.531994E-2,1.3452184E-1,9.117454E-1,-5.317041E-1,-7.7404273E-3,2.9150322E-1,-2.5336707E-1,1.1328657E0,7.0561576E-3,4.3911185E-2,-9.075247E-1,-3.222842E-1,1.5158646E-2,3.5351714E-1,-5.3338194E-1,1.010828E0,-6.333647E-1,2.1917976E-2,6.681538E-2,5.1053565E-2,-3.5008615E-1,2.470902E-1,-5.704548E-2,5.8411997E-2,-1.0360011E0,2.7493283E-1,-5.7931297E-2,-3.8897336E-4,2.3475735E-2,-4.3166205E-2,8.966733E-3,6.0624667E-3,6.089581E-2,-5.4685976E-2,-2.2871145E-3,-6.0558748E-2,1.2229575E-2,3.0906295E-2,-1.1744245E-2,-8.682103E-3,4.726178E-2,-1.244452E-2,-5.7246216E-2,2.6409686E-2,-2.6194628E-3,-5.2911308E-2,-2.062209E-3],"categories":[],"categories_nodes":[],"categories_segments":[],"categories_sizes":[],"default_left":[0,0,0,0,0,0,0,0,0,0,0,0,0,0,0,0,0,0,0,0,0,0,0,0,0,0,0,0,0,0,0,0,0,0,0,0,0,0,0,0,0,0,0,0,0,0,0,0,0],"id":17,"left_children":[1,3,5,7,9,11,13,15,17,19,-1,21,23,25,27,29,31,33,35,-1,-1,-1,37,39,-1,41,43,45,47,-1,-1,-1,-1,-1,-1,-1,-1,-1,-1,-1,-1,-1,-1,-1,-1,-1,-1,-1,-1],"loss_changes":[4.2365823E0,3.9510956E0,6.583885E0,5.0355644E0,1.0651088E0,5.6288953E0,2.4221015E0,3.1797242E0,1.2175062E1,1.8336964E-1,0E0,4.6537175E0,4.506337E0,6.2605543E0,5.9735765E0,2.308093E0,1.2100079E0,9.4560814E-1,5.1105146E0,0E0,0E0,0E0,4.749863E0,7.6357484E-1,0E0,3.4213343E0,4.001398E-1,5.753668E0,4.0576596E0,0E0,0E0,0E0,0E0,0E0,0E0,0E0,0E0,0E0,0E0,0E0,0E0,0E0,0E0,0E0,0E0,0E0,0E0,0E0,0E0],"parents":[2147483647,0,0,1,1,2,2,3,3,4,4,5,5,6,6,7,7,8,8,9,9,11,11,12,12,13,13,14,14,15,15,16,16,17,17,18,18,22,22,23,23,25,25,26,26,27,27,28,28],"right_children":[2,4,6,8,10,12,14,16,18,20,-1,22,24,26,28,30,32,34,36,-1,-1,-1,38,40,-1,42,44,46,48,-1,-1,-1,-1,-1,-1,-1,-1,-1,-1,-1,-1,-1,-1,-1,-1,-1,-1,-1,-1],"split_conditions":[-1.1103199E-3,-1.1749979E-3,-9.1304304E-4,-9.027462E-2,3.7310675E-3,-1.0409801E-3,-7.22423E-3,-1.245747E-3,-3.6507612E-3,-3.6545263E-3,7.0561576E-3,-2.337811E-3,-4.9575493E-3,2.808839E-3,-2.418531E-3,-3.5551876E-1,1.410382E-3,-1.837536E-3,2.1257119E-3,2.1917976E-2,6.681538E-2,5.1053565E-2,-1.3989793E-1,3.3206042E-4,-5.704548E-2,2.741854E-1,-1.324246E-2,5.207472E-4,-2.303274E-3,-3.8897336E-4,2.3475735E-2,-4.3166205E-2,8.966733E-3,6.0624667E-3,6.089581E-2,-5.4685976E-2,-2.2871145E-3,-6.0558748E-2,1.2229575E-2,3.0906295E-2,-1.1744245E-2,-8.682103E-3,4.726178E-2,-1.244452E-2,-5.7246216E-2,2.6409686E-2,-2.6194628E-3,-5.2911308E-2,-2.062209E-3],"split_indices":[1,1,1,2,5,1,5,1,5,4,0,5,4,4,5,2,5,1,5,0,0,0,2,5,0,2,5,1,5,0,0,0,0,0,0,0,0,0,0,0,0,0,0,0,0,0,0,0,0],"split_type":[0,0,0,0,0,0,0,0,0,0,0,0,0,0,0,0,0,0,0,0,0,0,0,0,0,0,0,0,0,0,0,0,0,0,0,0,0,0,0,0,0,0,0,0,0,0,0,0,0],"sum_hessian":[4.4610526E2,8.6673485E1,3.5943176E2,8.048463E1,6.1888585E0,2.483597E1,3.345958E2,5.7473274E1,2.3011353E1,4.443723E0,1.7451353E0,1.0159147E1,1.4676823E1,2.1818655E1,3.1277713E2,5.3986095E1,3.4871795E0,4.934597E0,1.8076756E1,1.7215259E0,2.7221975E0,2.461864E0,7.6972833E0,2.457957E0,1.2218865E1,1.4827717E1,6.9909377E0,6.8072876E1,2.4470425E2,1.33470545E1,4.0639038E1,2.2392402E0,1.2479395E0,1.2312164E0,3.7033806E0,9.653081E0,8.423674E0,2.720838E0,4.976445E0,1.2292027E0,1.2287542E0,1.2389872E1,2.4378452E0,1.2491596E0,5.741778E0,3.8032265E1,3.0040613E1,2.9910762E0,2.4171318E2],"tree_param":{"num_deleted":"0","num_feature":"7","num_nodes":"49","size_leaf_vector":"1"}},{"base_weights":[9.357114E-3,4.6581236E-1,-8.1482325E-3,2.2749484E-1,5.446533E-2,4.353859E-1,-2.5828822E-2,5.3036493E-1,-1.1494932E-1,-1.07458614E-1,7.6868737E-1,-9.069342E-1,-4.4227596E-3,-9.67626E-3,7.443477E-1,-4.2368483E-2,2.299545E-1,3.6735196E-2,-5.402905E-1,5.391195E-2,2.6208964E-1,1.1263641E-3,-1.0708007E0,3.709886E-2,-1.564383E-1,2.3556151E-3,5.1296312E-2,4.028537E-2,-3.4172393E-2,6.3026883E-3,-4.7408007E-2,-2.7546579E-2,3.578514E-2,-6.1263055E-2,-4.2196694E-3,2.8607387E-3,-3.3134323E-2,-1.497857E-2,1.866404E-2],"categories":[],"categories_nodes":[],"categories_segments":[],"categories_sizes":[],"default_left":[0,0,0,0,0,0,0,0,0,0,0,0,0,0,0,0,0,0,0,0,0,0,0,0,0,0,0,0,0,0,0,0,0,0,0,0,0,0,0],"id":18,"left_children":[1,3,5,7,-1,9,11,13,15,17,19,21,23,-1,25,-1,27,-1,29,-1,31,-1,33,35,37,-1,-1,-1,-1,-1,-1,-1,-1,-1,-1,-1,-1,-1,-1],"loss_changes":[3.6324713E0,2.2470193E0,3.4486754E0,1.4519095E0,0E0,3.133033E0,7.96437E0,1.2740276E0,1.9925091E0,3.0546532E0,1.3747516E0,1.5495739E0,2.615558E0,0E0,1.0975943E0,0E0,3.508551E0,0E0,1.5850066E0,0E0,2.3598506E0,0E0,1.19701E0,4.6208673E0,6.851989E0,0E0,0E0,0E0,0E0,0E0,0E0,0E0,0E0,0E0,0E0,0E0,0E0,0E0,0E0],"parents":[2147483647,0,0,1,1,2,2,3,3,5,5,6,6,7,7,8,8,9,9,10,10,11,11,12,12,14,14,16,16,18,18,20,20,22,22,23,23,24,24],"right_children":[2,4,6,8,-1,10,12,14,16,18,20,22,24,-1,26,-1,28,-1,30,-1,32,-1,34,36,38,-1,-1,-1,-1,-1,-1,-1,-1,-1,-1,-1,-1,-1,-1],"split_conditions":[-8.64428E-3,1.9307972E-3,-8.64428E-3,-1.9095651E-3,5.446533E-2,-2.6180435E-4,-7.6398724E-3,-7.963761E-3,-3.921066E-4,-4.461968E-3,1.3704454E-3,-2.9075197E-3,3.3419342E-3,-9.67626E-3,4.947341E-3,-4.2368483E-2,5.8247205E-3,3.6735196E-2,-1.128999E-2,5.391195E-2,-1.2440097E-2,1.1263641E-3,3.999639E-3,8.088037E-3,3.40582E-3,2.3556151E-3,5.1296312E-2,4.028537E-2,-3.4172393E-2,6.3026883E-3,-4.7408007E-2,-2.7546579E-2,3.578514E-2,-6.1263055E-2,-4.2196694E-3,2.8607387E-3,-3.3134323E-2,-1.497857E-2,1.866404E-2],"split_indices":[3,4,4,5,0,3,4,5,5,3,5,3,5,0,0,0,0,0,4,0,4,0,5,0,3,0,0,0,0,0,0,0,0,0,0,0,0,0,0],"split_type":[0,0,0,0,0,0,0,0,0,0,0,0,0,0,0,0,0,0,0,0,0,0,0,0,0,0,0,0,0,0,0,0,0,0,0,0,0,0,0],"sum_hessian":[4.53129E2,1.5790075E1,4.3733893E2,1.2411075E1,3.3790004E0,1.58596525E1,4.2147928E2,6.294885E0,6.1161895E0,6.2910614E0,9.568591E0,9.015602E0,4.1246368E2,1.458038E0,4.8368473E0,1.4916879E0,4.6245017E0,1.8989102E0,4.3921514E0,5.238974E0,4.3296165E0,1.4805205E0,7.535082E0,3.2456717E2,8.7896515E1,1.7272367E0,3.1096106E0,2.9088476E0,1.715654E0,1.9300077E0,2.4621437E0,1.4737108E0,2.855906E0,6.3055563E0,1.2295254E0,3.163905E2,8.176672E0,6.9540695E1,1.835582E1],"tree_param":{"num_deleted":"0","num_feature":"7","num_nodes":"39","size_leaf_vector":"1"}},{"base_weights":[-2.1009922E-2,9.038827E-1,-3.424361E-2,1.2060086E-2,5.396355E-2,5.094541E-1,-4.9036212E-2,-3.953679E-2,5.9652437E-2,1.1078922E-1,-8.783382E-2,4.21626E-1,-3.5408888E-2,3.5462655E-2,6.837988E-1,-5.34394E-1,-6.9457605E-2,3.7057977E-2,2.5684623E-5,1.9317737E-2,-4.8813927E-3,5.7532754E-2,1.9553571E-3,3.4295592E-2,-4.1616205E-2,-5.2121123E-3,8.207483E-3],"categories":[],"categories_nodes":[],"categories_segments":[],"categories_sizes":[],"default_left":[0,0,0,0,0,0,0,0,0,0,0,0,0,0,0,0,0,0,0,0,0,0,0,0,0,0,0],"id":19,"left_children":[1,3,5,-1,-1,7,9,11,-1,13,15,17,-1,19,21,23,25,-1,-1,-1,-1,-1,-1,-1,-1,-1,-1],"loss_changes":[5.547722E0,4.8290825E-1,3.60665E0,0E0,0E0,4.5067787E0,2.7036762E0,2.6292262E0,0E0,3.6577234E0,2.8361936E0,6.858743E-1,0E0,3.607867E0,2.9215417E0,5.548025E0,2.759245E0,0E0,0E0,0E0,0E0,0E0,0E0,0E0,0E0,0E0,0E0],"parents":[2147483647,0,0,1,1,2,2,5,5,6,6,7,7,9,9,10,10,11,11,13,13,14,14,15,15,16,16],"right_children":[2,4,6,-1,-1,8,10,12,-1,14,16,18,-1,20,22,24,26,-1,-1,-1,-1,-1,-1,-1,-1,-1,-1],"split_conditions":[-4.1045416E-3,-7.817238E-3,-9.6446825E-3,1.2060086E-2,5.396355E-2,-9.529545E-4,-1.071452E-3,-1.4872008E-3,5.9652437E-2,-1.1749979E-3,-6.6518504E-3,-1.9095651E-3,-3.5408888E-2,-4.5503597E-3,-1.1103199E-3,-2.9951525E-3,1.96481E-3,3.7057977E-2,2.5684623E-5,1.9317737E-2,-4.8813927E-3,5.7532754E-2,1.9553571E-3,3.4295592E-2,-4.1616205E-2,-5.2121123E-3,8.207483E-3],"split_indices":[1,4,3,0,0,1,1,1,0,1,3,5,0,3,1,4,1,0,0,0,0,0,0,0,0,0,0],"split_type":[0,0,0,0,0,0,0,0,0,0,0,0,0,0,0,0,0,0,0,0,0,0,0,0,0,0,0],"sum_hessian":[4.4972604E2,5.394674E0,4.4433136E2,1.626062E0,3.7686117E0,1.088319E1,4.3344818E2,6.558367E0,4.324823E0,8.430422E1,3.4914395E2,4.100011E0,2.4583561E0,7.54479E1,8.856324E0,1.2689747E1,3.364542E2,1.8990422E0,2.2009685E0,2.0224146E1,5.5223755E1,4.681431E0,4.1748934E0,2.2346165E0,1.0455131E1,2.9333044E2,4.3123768E1],"tree_param":{"num_deleted":"0","num_feature":"7","num_nodes":"27","size_leaf_vector":"1"}},{"base_weights":[-3.5897013E-2,7.5987804E-1,-4.7389142E-2,6.915085E-3,5.097999E-2,4.0694472E-1,-6.3535854E-2,-3.539181E-2,5.945359E-1,-7.54182E-1,-4.6170175E-2,1.0051707E0,2.9111657E-1,1.8372752E-2,-9.7600144E-1,-1.3503078E-1,2.6632998E-2,2.1060506E-2,5.9874535E-2,5.004046E-2,-1.05475355E-2,-5.5099208E-2,-4.4368464E-3,1.7836526E-2,-8.452008E-3,-1.8654024E-2,3.5636786E-3],"categories":[],"categories_nodes":[],"categories_segments":[],"categories_sizes":[],"default_left":[0,0,0,0,0,0,0,0,0,0,0,0,0,0,0,0,0,0,0,0,0,0,0,0,0,0,0],"id":20,"left_children":[1,3,5,-1,-1,7,9,-1,11,13,15,17,19,-1,21,23,25,-1,-1,-1,-1,-1,-1,-1,-1,-1,-1],"loss_changes":[4.227697E0,9.218426E-1,3.3473525E0,0E0,0E0,3.6985939E0,5.2194667E0,0E0,1.4466801E0,3.0158482E0,2.7751436E0,1.1600447E-1,3.573142E0,0E0,9.29492E-1,3.2897167E0,4.2433176E0,0E0,0E0,0E0,0E0,0E0,0E0,0E0,0E0,0E0,0E0],"parents":[2147483647,0,0,1,1,2,2,5,5,6,6,8,8,9,9,10,10,11,11,12,12,14,14,15,15,16,16],"right_children":[2,4,6,-1,-1,8,10,-1,12,14,16,18,20,-1,22,24,26,-1,-1,-1,-1,-1,-1,-1,-1,-1,-1],"split_conditions":[-4.1045416E-3,-7.817238E-3,-8.64428E-3,6.915085E-3,5.097999E-2,-2.9223696E-3,-7.6398724E-3,-3.539181E-2,-1.4191116E-3,-5.3640027E-3,-1.3091274E-4,5.600394E-4,-1.1765773E-3,1.8372752E-2,3.999639E-3,-8.64428E-3,-1.3247206E-3,2.1060506E-2,5.9874535E-2,5.004046E-2,-1.05475355E-2,-5.5099208E-2,-4.4368464E-3,1.7836526E-2,-8.452008E-3,-1.8654024E-2,3.5636786E-3],"split_indices":[1,4,4,0,0,1,4,0,1,3,3,5,5,0,5,3,1,0,0,0,0,0,0,0,0,0,0],"split_type":[0,0,0,0,0,0,0,0,0,0,0,0,0,0,0,0,0,0,0,0,0,0,0,0,0,0,0],"sum_hessian":[4.573507E2,5.5837145E0,4.51767E2,2.0971744E0,3.4865398E0,1.467383E1,4.3709317E2,1.7141309E0,1.29597E1,9.680069E0,4.274131E2,4.524128E0,8.435572E0,1.4898822E0,8.1901865E0,1.9209499E2,2.353181E2,1.9111782E0,2.6129496E0,3.0835173E0,5.352054E0,6.9599423E0,1.2302445E0,1.1811817E1,1.8028317E2,2.2901321E1,2.1241678E2],"tree_param":{"num_deleted":"0","num_feature":"7","num_nodes":"27","size_leaf_vector":"1"}},{"base_weights":[1.266803E-2,8.267994E-1,1.5719887E-3,-9.873831E-4,5.1745284E-2,4.539346E-2,-1.5777485E-1,-1.3726922E-3,2.2943357E-1,-5.861415E-1,-5.283024E-2,3.4809615E-2,-4.1388625E-1,-4.360491E-1,3.1419274E-1,-9.207657E-1,1.2388035E-1,-1.474772E-1,2.9686162E-1,-2.1563946E-4,2.3462294E-2,-7.408478E-2,-4.4067516E-3,4.056278E-2,-5.820432E-2,1.8699214E-2,-2.5325267E-2,-5.4212473E-5,-5.4396894E-2,-2.04631E-2,2.2837462E-2,2.2238783E-4,-3.2083686E-2,3.9989285E-2,-9.651867E-3],"categories":[],"categories_nodes":[],"categories_segments":[],"categories_sizes":[],"default_left":[0,0,0,0,0,0,0,0,0,0,0,0,0,0,0,0,0,0,0,0,0,0,0,0,0,0,0,0,0,0,0,0,0,0,0],"id":21,"left_children":[1,3,5,-1,-1,7,9,11,13,15,17,19,21,23,25,27,29,31,33,-1,-1,-1,-1,-1,-1,-1,-1,-1,-1,-1,-1,-1,-1,-1,-1],"loss_changes":[4.068924E0,1.0874019E0,3.1180525E0,0E0,0E0,3.0143628E0,4.298853E0,4.1970296E0,4.1396756E0,4.593534E0,2.6406345E0,4.3964696E0,7.756678E0,8.604778E0,3.3067112E0,1.9872122E0,1.4151225E0,4.6891437E0,4.353882E0,0E0,0E0,0E0,0E0,0E0,0E0,0E0,0E0,0E0,0E0,0E0,0E0,0E0,0E0,0E0,0E0],"parents":[2147483647,0,0,1,1,2,2,5,5,6,6,7,7,8,8,9,9,10,10,11,11,12,12,13,13,14,14,15,15,16,16,17,17,18,18],"right_children":[2,4,6,-1,-1,8,10,12,14,16,18,20,22,24,26,28,30,32,34,-1,-1,-1,-1,-1,-1,-1,-1,-1,-1,-1,-1,-1,-1,-1,-1],"split_conditions":[-4.1045416E-3,-1.174891E-2,3.3419342E-3,-9.873831E-4,5.1745284E-2,1.1938196E-3,3.999639E-3,8.852785E-4,-3.2383702E-3,7.538695E-4,8.764446E-3,5.030937E-3,9.3296025E-4,-5.861881E-3,3.7919295E-3,-6.045324E-3,3.3013115E-4,1.2752322E-3,0E0,-2.1563946E-4,2.3462294E-2,-7.408478E-2,-4.4067516E-3,4.056278E-2,-5.820432E-2,1.8699214E-2,-2.5325267E-2,-5.4212473E-5,-5.4396894E-2,-2.04631E-2,2.2837462E-2,2.2238783E-4,-3.2083686E-2,3.9989285E-2,-9.651867E-3],"split_indices":[1,3,5,0,0,1,5,1,3,1,5,4,1,3,1,3,4,1,4,0,0,0,0,0,0,0,0,0,0,0,0,0,0,0,0],"split_type":[0,0,0,0,0,0,0,0,0,0,0,0,0,0,0,0,0,0,0,0,0,0,0,0,0,0,0,0,0,0,0,0,0,0,0],"sum_hessian":[4.4956323E2,5.056387E0,4.4450684E2,1.1763341E0,3.8800526E0,3.491918E2,9.531502E1,2.792297E2,6.99621E1,1.7853739E1,7.746128E1,2.5755475E2,2.1674974E1,7.4357896E0,6.252631E1,1.1933038E1,5.9207E0,6.1416634E1,1.6044647E1,2.3718549E2,2.0369255E1,4.2371354E0,1.743784E1,2.6984258E0,4.737364E0,5.8787674E1,3.7386355E0,1.9902663E0,9.942771E0,2.1875281E0,3.7331722E0,4.773349E1,1.3683141E1,7.60495E0,8.439697E0],"tree_param":{"num_deleted":"0","num_feature":"7","num_nodes":"35","size_leaf_vector":"1"}},{"base_weights":[2.0585733E-3,1.8401982E-1,-4.643365E-2,3.2805017E-1,-1.59641E-1,-1.865649E-1,5.3784195E-2,5.104165E-1,-4.3181676E-2,-7.505912E-1,8.3277434E-2,-5.426226E-1,-9.323822E-2,1.8485343E-1,-2.371541E-1,2.6081246E-1,8.335913E-1,-1.8732588E-1,4.5224555E-2,-4.7459442E-2,-1.0362753E0,4.414855E-2,-7.46235E-2,-3.2266897E-1,-1.0576996E0,-2.7079844E-1,7.7886686E-2,1.2749372E-1,1.0106117E0,-4.9605173E-1,2.7583163E-2,4.999002E-3,4.1019212E-2,7.3607755E-4,4.8913766E-2,-1.6412213E-2,2.7518023E-2,1.1397859E-2,-1.5125232E-2,-6.070698E-2,-1.0165071E-2,-1.7407125E-2,3.2318216E-2,-2.2528475E-2,1.7367056E-2,-2.9547235E-2,-7.3044054E-2,2.7366823E-2,-1.7986529E-2,6.8577784E-3,-3.0860767E-2,8.627682E-3,-3.0868137E-2,6.5103853E-3,5.9973653E-2,1.5685713E-2,-3.629929E-2,-3.5195753E-3,3.161275E-2],"categories":[],"categories_nodes":[],"categories_segments":[],"categories_sizes":[],"default_left":[0,0,0,0,0,0,0,0,0,0,0,0,0,0,0,0,0,0,0,0,0,0,0,0,0,0,0,0,0,0,0,0,0,0,0,0,0,0,0,0,0,0,0,0,0,0,0,0,0,0,0,0,0,0,0,0,0,0,0],"id":22,"left_children":[1,3,5,7,9,11,13,15,17,19,21,23,25,27,29,31,33,35,-1,37,39,-1,41,43,45,47,49,51,53,55,57,-1,-1,-1,-1,-1,-1,-1,-1,-1,-1,-1,-1,-1,-1,-1,-1,-1,-1,-1,-1,-1,-1,-1,-1,-1,-1,-1,-1],"loss_changes":[3.9666452E0,4.7344065E0,4.995314E0,4.5567913E0,4.1693172E0,4.8754063E0,7.9657393E0,3.4121695E0,3.30956E0,1.6449699E0,2.7396393E0,3.1230688E0,3.62664E0,6.681498E0,4.466039E0,2.3337507E0,2.2547503E0,2.3409166E0,0E0,3.1373516E-1,6.3458014E-1,0E0,3.894006E0,2.116098E0,7.760925E-1,4.4503145E0,2.60608E0,4.657323E0,1.3726387E0,6.3525543E0,2.003369E0,0E0,0E0,0E0,0E0,0E0,0E0,0E0,0E0,0E0,0E0,0E0,0E0,0E0,0E0,0E0,0E0,0E0,0E0,0E0,0E0,0E0,0E0,0E0,0E0,0E0,0E0,0E0,0E0],"parents":[2147483647,0,0,1,1,2,2,3,3,4,4,5,5,6,6,7,7,8,8,9,9,10,10,11,11,12,12,13,13,14,14,15,15,16,16,17,17,19,19,20,20,22,22,23,23,24,24,25,25,26,26,27,27,28,28,29,29,30,30],"right_children":[2,4,6,8,10,12,14,16,18,20,22,24,26,28,30,32,34,36,-1,38,40,-1,42,44,46,48,50,52,54,56,58,-1,-1,-1,-1,-1,-1,-1,-1,-1,-1,-1,-1,-1,-1,-1,-1,-1,-1,-1,-1,-1,-1,-1,-1,-1,-1,-1,-1],"split_conditions":[-1.1103199E-3,7.9532113E-4,-1.3091274E-4,3.9011022E-4,1.886953E-3,-5.737609E-4,2.1707576E-3,-3.3119381E-3,-1.1749979E-3,1.0270596E-3,-8.64428E-3,2.340608E-3,1.0059505E-3,1.7956553E-3,1.0475029E-3,-3.4964576E-4,-9.189442E-3,4.255093E-3,4.5224555E-2,1E0,1.7690716E-3,4.414855E-2,-1.3247206E-3,9.364041E-4,-3.458535E-3,-7.4258964E-3,-5.029961E-4,1.482191E-3,-1.6660853E-6,-4.9147906E-4,1.0416392E-2,4.999002E-3,4.1019212E-2,7.3607755E-4,4.8913766E-2,-1.6412213E-2,2.7518023E-2,1.1397859E-2,-1.5125232E-2,-6.070698E-2,-1.0165071E-2,-1.7407125E-2,3.2318216E-2,-2.2528475E-2,1.7367056E-2,-2.9547235E-2,-7.3044054E-2,2.7366823E-2,-1.7986529E-2,6.8577784E-3,-3.0860767E-2,8.627682E-3,-3.0868137E-2,6.5103853E-3,5.9973653E-2,1.5685713E-2,-3.629929E-2,-3.5195753E-3,3.161275E-2],"split_indices":[1,3,3,4,3,1,4,4,1,3,4,5,4,4,1,3,3,5,0,6,4,0,1,5,3,3,3,4,1,1,4,0,0,0,0,0,0,0,0,0,0,0,0,0,0,0,0,0,0,0,0,0,0,0,0,0,0,0,0],"split_type":[0,0,0,0,0,0,0,0,0,0,0,0,0,0,0,0,0,0,0,0,0,0,0,0,0,0,0,0,0,0,0,0,0,0,0,0,0,0,0,0,0,0,0,0,0,0,0,0,0,0,0,0,0,0,0,0,0,0,0],"sum_hessian":[4.4757574E2,9.3591194E1,3.5398456E2,6.598282E1,2.7608377E1,1.4724092E2,2.0674365E2,4.3995335E1,2.1987482E1,7.433918E0,2.017446E1,2.9578712E1,1.1766221E2,1.4278354E2,6.396011E1,2.584273E1,1.8152605E1,1.9781048E1,2.2064333E0,2.4846847E0,4.949233E0,2.5694551E0,1.7605005E1,2.1867197E1,7.7115154E0,5.745946E1,6.0202744E1,1.3458896E2,8.194569E0,3.189495E1,3.206516E1,2.0988794E1,4.8539367E0,2.89117E0,1.52614355E1,1.7074404E1,2.7066453E0,1.2456974E0,1.2389873E0,3.701301E0,1.2479322E0,1.3138009E1,4.466996E0,1.8637028E1,3.2301683E0,4.7167435E0,2.994772E0,5.1281633E0,5.23313E1,5.6212395E1,3.990348E0,1.27636E2,6.9529686E0,1.7457838E0,6.448785E0,6.9731216E0,2.492183E1,2.8354485E1,3.710675E0],"tree_param":{"num_deleted":"0","num_feature":"7","num_nodes":"59","size_leaf_vector":"1"}},{"base_weights":[-1.8325241E-2,1.704437E-1,-7.37694E-2,9.323594E-2,6.182874E-1,-8.321537E-1,-4.1333787E-2,2.6342142E-1,-2.3200625E-1,-2.5226584E-2,8.537111E-1,2.6063946E-1,-1.0772913E0,-8.2623094E-2,1.6167022E-1,3.1103894E-1,-3.6665827E-2,-4.4349158E-1,4.2750505E-1,2.0860377E-1,6.4940706E-2,-6.37574E-3,2.6734957E-2,-1.1929278E0,-1.669412E-2,4.98055E-3,-2.7048427E-1,5.2052087E-1,-7.257586E-2,3.617645E-3,2.4787238E-2,-3.845453E-2,-4.1103815E-3,5.616222E-2,3.4880606E-3,-1.9279633E-2,4.6187803E-2,-1.5788458E-2,-6.5471426E-2,2.7442537E-3,-3.3990417E-2,-4.9031574E-2,-9.217257E-3,1.645226E-2,5.2537717E-2,-5.7719022E-2,1.7057419E-3],"categories":[],"categories_nodes":[],"categories_segments":[],"categories_sizes":[],"default_left":[0,0,0,0,0,0,0,0,0,0,0,0,0,0,0,0,0,0,0,0,0,0,0,0,0,0,0,0,0,0,0,0,0,0,0,0,0,0,0,0,0,0,0,0,0,0,0],"id":23,"left_children":[1,3,5,7,9,11,13,15,17,-1,19,21,23,25,27,29,-1,31,33,35,-1,-1,-1,37,-1,39,41,43,45,-1,-1,-1,-1,-1,-1,-1,-1,-1,-1,-1,-1,-1,-1,-1,-1,-1,-1],"loss_changes":[4.7644577E0,3.51693E0,8.615589E0,5.0070987E0,4.402214E0,4.1304197E0,2.8487363E0,3.0344982E0,4.5449796E0,0E0,3.4020262E0,4.3392622E-1,6.2746906E-1,4.6384025E0,4.872176E0,2.483047E0,0E0,2.7759004E0,1.935524E0,3.0816767E0,0E0,0E0,0E0,6.020231E-1,0E0,6.637619E0,5.301688E0,1.9728084E0,4.1569185E0,0E0,0E0,0E0,0E0,0E0,0E0,0E0,0E0,0E0,0E0,0E0,0E0,0E0,0E0,0E0,0E0,0E0,0E0],"parents":[2147483647,0,0,1,1,2,2,3,3,4,4,5,5,6,6,7,7,8,8,10,10,11,11,12,12,13,13,14,14,15,15,17,17,18,18,19,19,23,23,25,25,26,26,27,27,28,28],"right_children":[2,4,6,8,10,12,14,16,18,-1,20,22,24,26,28,30,-1,32,34,36,-1,-1,-1,38,-1,40,42,44,46,-1,-1,-1,-1,-1,-1,-1,-1,-1,-1,-1,-1,-1,-1,-1,-1,-1,-1],"split_conditions":[-1.0409801E-3,-1.1749979E-3,-9.1304304E-4,-1.1798368E-1,3.1290841E-3,-4.630033E-3,2.6227605E-1,-1.220555E-3,4.2714305E-2,-2.5226584E-2,-1.3989793E-1,4.953088E-3,5.342639E-3,9.258019E-2,7.172378E-4,-2.8834185E-1,-3.6665827E-2,-1.7638307E-3,6.064927E-2,9.0217736E-4,6.4940706E-2,-6.37574E-3,2.6734957E-2,3.2068465E-3,-1.669412E-2,6.8183676E-3,-3.779119E-4,2.1919778E-3,1.0721193E-3,3.617645E-3,2.4787238E-2,-3.845453E-2,-4.1103815E-3,5.616222E-2,3.4880606E-3,-1.9279633E-2,4.6187803E-2,-1.5788458E-2,-6.5471426E-2,2.7442537E-3,-3.3990417E-2,-4.9031574E-2,-9.217257E-3,1.645226E-2,5.2537717E-2,-5.7719022E-2,1.7057419E-3],"split_indices":[1,1,1,2,0,4,2,1,2,0,2,0,0,2,4,2,0,1,2,4,0,0,0,0,0,4,1,1,4,0,0,0,0,0,0,0,0,0,0,0,0,0,0,0,0,0,0],"split_type":[0,0,0,0,0,0,0,0,0,0,0,0,0,0,0,0,0,0,0,0,0,0,0,0,0,0,0,0,0,0,0,0,0,0,0,0,0,0,0,0,0,0,0,0,0,0,0],"sum_hessian":[4.530248E2,1.0238017E2,3.5064462E2,8.8355896E1,1.402427E1,1.3370496E1,3.3727414E2,5.812935E1,3.0226551E1,2.2326927E0,1.1791577E1,2.438175E0,1.0932321E1,2.8076242E2,5.6511715E1,5.613551E1,1.9938389E0,2.3135305E1,7.0912466E0,5.4137926E0,6.3777847E0,1.230343E0,1.2078319E0,8.937437E0,1.9948837E0,1.9213792E2,8.86245E1,2.1836864E1,3.467485E1,2.5096403E1,3.1039104E1,1.1574908E1,1.1560396E1,1.6814216E0,5.4098253E0,3.2086532E0,2.2051396E0,1.4828886E0,7.454549E0,1.7994421E2,1.2193724E1,8.463723E0,8.0160774E1,1.723397E1,4.6028943E0,2.23122E0,3.244363E1],"tree_param":{"num_deleted":"0","num_feature":"7","num_nodes":"47","size_leaf_vector":"1"}},{"base_weights":[7.426646E-3,-4.4504493E-3,8.114637E-1,1.3529938E-3,-4.7474816E-2,5.4214E-2,-9.81298E-3,-1.0543258E-1,5.8222033E-2,-1.6832468E-1,5.8342075E-1,1.709061E-1,-7.75137E-2,1.7703637E-2,-1.0660735E-2,-1.6890112E-2,4.741248E-2,5.1046856E-2,5.5934507E-3,-3.442018E-2,8.7956636E-4],"categories":[],"categories_nodes":[],"categories_segments":[],"categories_sizes":[],"default_left":[0,0,0,0,0,0,0,0,0,0,0,0,0,0,0,0,0,0,0,0,0],"id":24,"left_children":[1,3,5,7,-1,-1,-1,9,11,13,15,17,19,-1,-1,-1,-1,-1,-1,-1,-1],"loss_changes":[4.3115764E0,2.444865E0,2.0196576E0,2.7013686E0,0E0,0E0,0E0,6.795177E0,4.4525375E0,3.4154096E0,4.742027E0,7.859823E0,7.7009897E0,0E0,0E0,0E0,0E0,0E0,0E0,0E0,0E0],"parents":[2147483647,0,0,1,1,2,2,3,3,7,7,8,8,9,9,10,10,11,11,12,12],"right_children":[2,4,6,8,-1,-1,-1,10,12,14,16,18,20,-1,-1,-1,-1,-1,-1,-1,-1],"split_conditions":[9.102062E-3,9.0009635E-3,6.3863364E-3,3.8569858E-3,-4.7474816E-2,5.4214E-2,-9.81298E-3,4.2390814E-3,9.1621437E-4,-5.0338E-3,-1.581623E-3,4.0075956E-3,1.5514125E-3,1.7703637E-2,-1.0660735E-2,-1.6890112E-2,4.741248E-2,5.1046856E-2,5.5934507E-3,-3.442018E-2,8.7956636E-4],"split_indices":[0,0,4,0,0,0,0,3,3,3,4,0,3,0,0,0,0,0,0,0,0],"split_type":[0,0,0,0,0,0,0,0,0,0,0,0,0,0,0,0,0,0,0,0,0],"sum_hessian":[4.5011353E2,4.445413E2,5.5722218E0,4.4282056E2,1.7207536E0,4.325287E0,1.2469351E0,1.5358086E2,2.892397E2,1.4142448E2,1.2156367E1,1.5789801E2,1.3134169E2,1.0646042E1,1.3077844E2,3.469549E0,8.686818E0,9.196162E0,1.4870184E2,1.685275E1,1.1448893E2],"tree_param":{"num_deleted":"0","num_feature":"7","num_nodes":"21","size_leaf_vector":"1"}},{"base_weights":[7.439151E-3,-3.6897946E-2,1.4304428E-1,-1.1534109E-2,-7.8718233E-1,-6.8191326E-1,1.7962928E-1,1.3942268E-1,-8.089368E-2,-1.2168148E0,-1.6352297E-1,5.512512E-3,-5.69922E-2,2.5152066E-1,-2.7085155E-1,4.8906304E-2,7.940738E-1,-1.462237E-1,1.24210685E-1,-6.9207996E-2,-1.9776203E-2,-3.6772557E-2,3.379283E-1,-3.781847E-1,2.961679E-1,-7.37971E-1,8.139825E-2,-1.2354086E-2,9.126548E-3,3.5474875E-3,6.9692634E-2,-4.4370373E-3,-2.2896105E-2,2.5463313E-2,-3.9401846E-3,3.656332E-2,-1.2419809E-2,3.3532295E-2,-5.7019915E-2,2.2686189E-2,2.1724384E-3,-1.4071755E-2,-4.5093786E-2,2.1522583E-2,-3.731641E-2],"categories":[],"categories_nodes":[],"categories_segments":[],"categories_sizes":[],"default_left":[0,0,0,0,0,0,0,0,0,0,0,0,0,0,0,0,0,0,0,0,0,0,0,0,0,0,0,0,0,0,0,0,0,0,0,0,0,0,0,0,0,0,0,0,0],"id":25,"left_children":[1,3,5,7,9,11,13,15,17,19,21,-1,-1,23,25,27,29,31,33,-1,-1,-1,35,37,39,41,43,-1,-1,-1,-1,-1,-1,-1,-1,-1,-1,-1,-1,-1,-1,-1,-1,-1,-1],"loss_changes":[2.7392743E0,6.5274124E0,3.5102904E0,3.5006611E0,2.8065672E0,1.9304173E0,3.5746524E0,6.199999E0,3.0863721E0,3.4401894E-1,1.8920398E0,0E0,0E0,2.7517228E0,2.5911784E0,3.7455788E0,5.4194555E0,3.079195E0,4.4065266E0,0E0,0E0,0E0,1.0438586E0,6.085432E0,3.4936051E0,2.4845958E-1,3.1151998E0,0E0,0E0,0E0,0E0,0E0,0E0,0E0,0E0,0E0,0E0,0E0,0E0,0E0,0E0,0E0,0E0,0E0,0E0],"parents":[2147483647,0,0,1,1,2,2,3,3,4,4,5,5,6,6,7,7,8,8,9,9,10,10,13,13,14,14,15,15,16,16,17,17,18,18,22,22,23,23,24,24,25,25,26,26],"right_children":[2,4,6,8,10,12,14,16,18,20,22,-1,-1,24,26,28,30,32,34,-1,-1,-1,36,38,40,42,44,-1,-1,-1,-1,-1,-1,-1,-1,-1,-1,-1,-1,-1,-1,-1,-1,-1,-1],"split_conditions":[9.884776E-4,8.852785E-4,2.5613315E-3,-1.5798878E-3,9.3296025E-4,1.9155773E-3,6.8183676E-3,-2.0349047E-3,5.1421425E-3,4.2835306E-3,2.1174284E-4,5.512512E-3,-5.69922E-2,-7.499302E-3,-7.065102E-4,-2.0501635E-3,-7.0348533E-4,4.6979347E-3,5.6460993E-3,-6.9207996E-2,-1.9776203E-2,-3.6772557E-2,3.7825897E-3,-1.1885507E-3,1.7964363E-3,4.378753E-3,7.2557027E-3,-1.2354086E-2,9.126548E-3,3.5474875E-3,6.9692634E-2,-4.4370373E-3,-2.2896105E-2,2.5463313E-2,-3.9401846E-3,3.656332E-2,-1.2419809E-2,3.3532295E-2,-5.7019915E-2,2.2686189E-2,2.1724384E-3,-1.4071755E-2,-4.5093786E-2,2.1522583E-2,-3.731641E-2],"split_indices":[1,1,0,5,1,0,4,5,0,0,4,0,0,5,5,4,1,0,0,0,0,0,4,4,5,0,0,0,0,0,0,0,0,0,0,0,0,0,0,0,0,0,0,0,0],"split_type":[0,0,0,0,0,0,0,0,0,0,0,0,0,0,0,0,0,0,0,0,0,0,0,0,0,0,0,0,0,0,0,0,0,0,0,0,0,0,0,0,0,0,0,0,0],"sum_hessian":[4.53731E2,3.424819E2,1.11249084E2,3.3226486E2,1.021705E1,3.975104E0,1.0727398E2,1.04284966E2,2.279799E2,5.4864216E0,4.730628E0,1.7342716E0,2.2408326E0,9.28913E1,1.4382683E1,9.256151E1,1.1723459E1,1.7312352E2,5.4856373E1,3.988403E0,1.4980187E0,1.9920075E0,2.7386208E0,5.6555023E0,8.7235794E1,5.7124133E0,8.67027E0,2.8525793E1,6.403571E1,5.8222046E0,5.9012547E0,1.472522E2,2.5871326E1,1.8416822E1,3.643955E1,1.4911038E0,1.247517E0,2.4307902E0,3.2247121E0,5.324514E1,3.3990658E1,2.2268543E0,3.4855587E0,6.4361115E0,2.234158E0],"tree_param":{"num_deleted":"0","num_feature":"7","num_nodes":"45","size_leaf_vector":"1"}},{"base_weights":[-9.15355E-3,6.802815E-1,-2.4645848E-2,-4.536568E-3,8.4569794E-1,-6.707787E-3,-4.964252E-1,-6.7763105E-3,1.0769447E0,3.2491793E-3,-8.876682E-1,-6.9034886E-1,2.9135946E-2,6.3969314E-2,9.423415E-3,-1.4988147E-2,4.763694E-1,-8.281593E-3,-5.4852184E-2,1.6967337E-1,-8.8354033E-1,-1.3799638E-3,3.307598E-2,3.0615313E-2,-1.1480696E-2,2.9840216E-2,-1.740554E-2,-2.4177961E-2,-6.87352E-2],"categories":[],"categories_nodes":[],"categories_segments":[],"categories_sizes":[],"default_left":[0,0,0,0,0,0,0,0,0,0,0,0,0,0,0,0,0,0,0,0,0,0,0,0,0,0,0,0,0],"id":26,"left_children":[1,3,5,-1,7,9,11,-1,13,15,17,19,-1,-1,-1,21,23,-1,-1,25,27,-1,-1,-1,-1,-1,-1,-1,-1],"loss_changes":[4.7780385E0,1.3306589E0,3.6944199E0,0E0,2.0047445E0,3.7041001E0,3.7487836E0,0E0,9.713998E-1,3.6158214E0,5.317569E-1,2.4781632E0,0E0,0E0,0E0,3.4622386E0,1.6332633E0,0E0,0E0,9.617636E-1,1.6148691E0,0E0,0E0,0E0,0E0,0E0,0E0,0E0,0E0],"parents":[2147483647,0,0,1,1,2,2,4,4,5,5,6,6,8,8,9,9,10,10,11,11,15,15,16,16,19,19,20,20],"right_children":[2,4,6,-1,8,10,12,-1,14,16,18,20,-1,-1,-1,22,24,-1,-1,26,28,-1,-1,-1,-1,-1,-1,-1,-1],"split_conditions":[-3.514855E-3,-1.2440097E-2,8.484775E-3,-4.536568E-3,4.860996E-3,3.7919295E-3,3.2993054E-3,-6.7763105E-3,-5.2978992E-2,6.439507E-3,-1.9160525E-3,-1.0973713E-1,2.9135946E-2,6.3969314E-2,9.423415E-3,2.9710548E-3,5.030937E-3,-8.281593E-3,-5.4852184E-2,6.1538746E-3,5.67199E-3,-1.3799638E-3,3.307598E-2,3.0615313E-2,-1.1480696E-2,2.9840216E-2,-1.740554E-2,-2.4177961E-2,-6.87352E-2],"split_indices":[1,4,3,0,0,1,1,0,2,3,3,2,0,0,0,1,4,0,0,0,0,0,0,0,0,0,0,0,0],"split_type":[0,0,0,0,0,0,0,0,0,0,0,0,0,0,0,0,0,0,0,0,0,0,0,0,0,0,0,0,0],"sum_hessian":[4.4477304E2,8.831785E0,4.3594125E2,1.6398536E0,7.1919317E0,4.2095004E2,1.4991203E1,1.450618E0,5.741314E0,4.1723065E2,3.7193956E0,1.3013026E1,1.9781773E0,4.317568E0,1.4237461E0,4.02677E2,1.4553637E1,1.2387189E0,2.4806767E0,2.4093149E0,1.0603711E1,3.962495E2,6.4274883E0,1.2315065E1,2.2385712E0,1.236603E0,1.1727117E0,6.9381323E0,3.6655793E0],"tree_param":{"num_deleted":"0","num_feature":"7","num_nodes":"29","size_leaf_vector":"1"}},{"base_weights":[1.05919065E-2,-3.4902725E-2,1.451961E-1,-2.4560972E-1,2.194118E-2,5.6072485E-1,3.035276E-2,1.7500503E-1,-4.1183996E-1,7.450334E-2,-5.29741E-3,1.0385729E0,-1.5451075E-1,3.717771E-1,-3.463055E-2,6.4739215E-1,-1.6257392E-1,4.0215626E-2,-4.7417337E-1,-5.6757E-1,1.4600435E-2,4.1233122E-1,1.1707093E0,4.0527186E-1,-4.5297545E-1,-4.3168977E-2,9.220772E-1,-3.505408E-1,9.506758E-2,6.085368E-2,-3.1146739E-2,-2.1802038E-2,2.457189E-2,-3.9420463E-2,-1.4365568E-2,-6.516378E-2,-2.7785855E-3,6.157744E-3,-6.0641337E-3,5.2123457E-2,-1.5386537E-2,2.343192E-2,6.3556574E-2,3.910882E-2,-1.0534231E-2,-4.5138583E-2,1.3155728E-2,-2.2347545E-2,3.3512376E-2,-3.6156618E-3,6.187729E-2,-2.8855035E-3,-3.7243582E-2,-4.329486E-2,8.201185E-3],"categories":[],"categories_nodes":[],"categories_segments":[],"categories_sizes":[],"default_left":[0,0,0,0,0,0,0,0,0,0,0,0,0,0,0,0,0,0,0,0,0,0,0,0,0,0,0,0,0,0,0,0,0,0,0,0,0,0,0,0,0,0,0,0,0,0,0,0,0,0,0,0,0,0,0],"id":27,"left_children":[1,3,5,7,9,11,13,15,17,-1,19,21,23,25,27,29,31,-1,33,35,37,39,41,43,45,47,49,51,53,-1,-1,-1,-1,-1,-1,-1,-1,-1,-1,-1,-1,-1,-1,-1,-1,-1,-1,-1,-1,-1,-1,-1,-1,-1,-1],"loss_changes":[2.8168612E0,4.125361E0,5.527269E0,5.187603E0,1.087768E1,8.739023E0,2.0558863E0,3.5220442E0,4.3792553E0,0E0,3.0051093E0,7.7313423E-1,2.008618E0,3.4213245E0,3.2404072E0,7.3659286E0,2.592185E0,0E0,2.7561235E0,3.3855708E0,3.8454008E0,2.2210586E0,2.4954224E-1,1.1692281E0,2.6844573E0,3.0067973E0,2.1005635E0,2.6123433E0,3.8712354E0,0E0,0E0,0E0,0E0,0E0,0E0,0E0,0E0,0E0,0E0,0E0,0E0,0E0,0E0,0E0,0E0,0E0,0E0,0E0,0E0,0E0,0E0,0E0,0E0,0E0,0E0],"parents":[2147483647,0,0,1,1,2,2,3,3,4,4,5,5,6,6,7,7,8,8,10,10,11,11,12,12,13,13,14,14,15,15,16,16,18,18,19,19,20,20,21,21,22,22,23,23,24,24,25,25,26,26,27,27,28,28],"right_children":[2,4,6,8,10,12,14,16,18,-1,20,22,24,26,28,30,32,-1,34,36,38,40,42,44,46,48,50,52,54,-1,-1,-1,-1,-1,-1,-1,-1,-1,-1,-1,-1,-1,-1,-1,-1,-1,-1,-1,-1,-1,-1,-1,-1,-1,-1],"split_conditions":[5.286195E-3,-3.2383702E-3,-1.7189716E-1,-1.2743451E-3,-3.104909E-3,6.8880543E-3,-6.231108E-3,4.029424E-3,-9.6446825E-3,7.450334E-2,-2.20964E-3,5.4502273E-3,-2.740805E-1,-8.302583E-3,-5.273323E-4,-4.9592843E-3,5.0813276E-3,4.0215626E-2,-5.737609E-4,-1.4864581E-3,4.156911E-4,5.358445E-3,-7.932898E-3,8.857432E-3,-2.02392E-1,-4.1423546E-4,5.553903E-3,6.4275943E-4,-1.456897E-1,6.085368E-2,-3.1146739E-2,-2.1802038E-2,2.457189E-2,-3.9420463E-2,-1.4365568E-2,-6.516378E-2,-2.7785855E-3,6.157744E-3,-6.0641337E-3,5.2123457E-2,-1.5386537E-2,2.343192E-2,6.3556574E-2,3.910882E-2,-1.0534231E-2,-4.5138583E-2,1.3155728E-2,-2.2347545E-2,3.3512376E-2,-3.6156618E-3,6.187729E-2,-2.8855035E-3,-3.7243582E-2,-4.329486E-2,8.201185E-3],"split_indices":[0,3,2,1,3,0,3,0,3,0,1,0,2,3,3,3,0,0,1,3,1,0,3,0,2,1,0,1,2,0,0,0,0,0,0,0,0,0,0,0,0,0,0,0,0,0,0,0,0,0,0,0,0,0,0],"split_type":[0,0,0,0,0,0,0,0,0,0,0,0,0,0,0,0,0,0,0,0,0,0,0,0,0,0,0,0,0,0,0,0,0,0,0,0,0,0,0,0,0,0,0,0,0,0,0,0,0,0,0,0,0,0,0],"sum_hessian":[4.5816064E2,3.429786E2,1.1518203E2,7.216376E1,2.7081485E2,2.4100075E1,9.1081955E1,2.042622E1,5.1737537E1,3.9547462E0,2.668601E2,1.41766205E1,9.923455E0,1.3808827E1,7.7273125E1,8.130772E0,1.2295448E1,1.9421393E0,4.9795395E1,8.180197E0,2.586799E2,3.1880054E0,1.0988615E1,3.32654E0,6.5969157E0,8.397992E0,5.410835E0,2.1995407E1,5.5277718E1,5.642361E0,2.4884105E0,8.905152E0,3.3902955E0,1.7368507E1,3.242689E1,2.7225773E0,5.4576197E0,1.4385252E2,1.1482739E2,1.4613793E0,1.7266262E0,2.0842087E0,8.904406E0,1.8963219E0,1.4302181E0,3.8917208E0,2.705195E0,5.6012716E0,2.7967205E0,1.4887894E0,3.9220452E0,1.32800045E1,8.715403E0,2.92721E0,5.235051E1],"tree_param":{"num_deleted":"0","num_feature":"7","num_nodes":"55","size_leaf_vector":"1"}},{"base_weights":[6.2524556E-4,1.8890242E-1,-4.652947E-2,1.2853523E-1,8.5579246E-1,-4.4372723E-1,-2.0017732E-2,7.570362E-2,7.898944E-1,-8.824992E-3,6.3110836E-2,4.9703043E-2,-5.736262E-1,6.769202E-2,-1.1671645E-1,2.111114E-1,-2.176865E-1,9.355334E-1,6.0739582E-3,-1.023569E0,-7.344784E-2,-1.3212436E-1,2.4132204E-1,-3.1785247E-1,2.5718713E-2,1.8879687E-2,-9.047511E-3,3.9761838E-2,-2.4960397E-2,2.7222205E-3,6.058606E-2,-6.1812263E-2,4.438381E-3,1.0850325E-2,-4.706789E-2,-6.014209E-2,-4.0412406E-3,-8.882737E-3,1.813105E-2,-6.3414285E-3,-3.7619144E-2,2.57893E-2,-4.4154315E-3],"categories":[],"categories_nodes":[],"categories_segments":[],"categories_sizes":[],"default_left":[0,0,0,0,0,0,0,0,0,0,0,0,0,0,0,0,0,0,0,0,0,0,0,0,0,0,0,0,0,0,0,0,0,0,0,0,0,0,0,0,0,0,0],"id":28,"left_children":[1,3,5,7,9,11,13,15,17,-1,-1,-1,19,21,23,25,27,29,-1,31,33,35,37,39,41,-1,-1,-1,-1,-1,-1,-1,-1,-1,-1,-1,-1,-1,-1,-1,-1,-1,-1],"loss_changes":[3.9833155E0,3.5077112E0,3.7695544E0,2.860546E0,3.278121E0,4.7545214E0,2.869603E0,3.164681E0,4.7790885E-1,0E0,0E0,0E0,4.691761E0,6.1921926E0,4.6162777E0,3.607392E0,7.606528E0,1.1119123E0,0E0,2.729352E0,3.004504E0,4.472797E0,4.910724E0,5.445864E0,5.359272E0,0E0,0E0,0E0,0E0,0E0,0E0,0E0,0E0,0E0,0E0,0E0,0E0,0E0,0E0,0E0,0E0,0E0,0E0],"parents":[2147483647,0,0,1,1,2,2,3,3,4,4,5,5,6,6,7,7,8,8,12,12,13,13,14,14,15,15,16,16,17,17,19,19,20,20,21,21,22,22,23,23,24,24],"right_children":[2,4,6,8,10,12,14,16,18,-1,-1,-1,20,22,24,26,28,30,-1,32,34,36,38,40,42,-1,-1,-1,-1,-1,-1,-1,-1,-1,-1,-1,-1,-1,-1,-1,-1,-1,-1],"split_conditions":[-1.1103199E-3,6.2037054E-3,-9.009578E-4,-1.1749979E-3,-2.408009E-3,-5.876853E-3,5.207472E-4,-1.1798368E-1,3.2128345E-3,-8.824992E-3,6.3110836E-2,4.9703043E-2,-1.3154398E-1,-4.4573817E-2,4.203123E-3,-1.4872008E-3,-3.6507612E-3,-3.6545263E-3,6.0739582E-3,5.0149467E-3,3.0319304E-3,-7.963761E-3,-4.1423546E-4,1.9308513E-3,4.510213E-3,1.8879687E-2,-9.047511E-3,3.9761838E-2,-2.4960397E-2,2.7222205E-3,6.058606E-2,-6.1812263E-2,4.438381E-3,1.0850325E-2,-4.706789E-2,-6.014209E-2,-4.0412406E-3,-8.882737E-3,1.813105E-2,-6.3414285E-3,-3.7619144E-2,2.57893E-2,-4.4154315E-3],"split_indices":[1,5,1,1,1,5,1,2,5,0,0,0,2,2,0,1,5,4,0,0,5,5,1,5,0,0,0,0,0,0,0,0,0,0,0,0,0,0,0,0,0,0,0],"split_type":[0,0,0,0,0,0,0,0,0,0,0,0,0,0,0,0,0,0,0,0,0,0,0,0,0,0,0,0,0,0,0,0,0,0,0,0,0,0,0,0,0,0,0],"sum_hessian":[4.4667468E2,8.886251E1,3.578122E2,8.258006E1,6.282448E0,2.1403831E1,3.3640836E2,7.75033E1,5.07676E0,1.934546E0,4.347902E0,1.2222941E0,2.0181538E1,1.7656056E2,1.598478E2,5.3220837E1,2.4282469E1,3.840365E0,1.2363946E0,1.0073429E1,1.01081085E1,8.220114E1,9.435943E1,6.575793E1,9.408986E1,3.7383476E1,1.5837359E1,4.8841953E0,1.9398273E1,1.2022138E0,2.6381512E0,8.363041E0,1.7103889E0,8.135465E0,1.9726441E0,2.7319906E0,7.946915E1,2.1080608E1,7.327882E1,4.6574974E1,1.9182951E1,1.70951E1,7.699476E1],"tree_param":{"num_deleted":"0","num_feature":"7","num_nodes":"43","size_leaf_vector":"1"}},{"base_weights":[1.5399355E-2,7.623963E-1,5.584741E-3,-1.7139408E-3,4.8386108E-2,1.249222E-1,-5.140172E-2,1.925034E-1,-3.9248028E-1,-6.768676E-2,-3.941292E-2,1.4102285E-1,8.043736E-1,-1.2052586E0,4.1418243E-2,-2.1260325E-2,-7.803784E-1,-4.342811E-2,8.374713E-3,5.7302594E-2,-1.2666456E-2,-6.75699E-2,-2.2898179E-2,-2.4522088E-2,4.9448464E-2,-3.2739185E-3,1.5287638E-2,-5.312063E-2,3.394878E-3],"categories":[],"categories_nodes":[],"categories_segments":[],"categories_sizes":[],"default_left":[0,0,0,0,0,0,0,0,0,0,0,0,0,0,0,0,0,0,0,0,0,0,0,0,0,0,0,0,0],"id":29,"left_children":[1,3,5,-1,-1,7,9,11,13,-1,15,17,19,21,23,25,27,-1,-1,-1,-1,-1,-1,-1,-1,-1,-1,-1,-1],"loss_changes":[3.309266E0,9.907217E-1,3.0470068E0,0E0,0E0,5.1384487E0,4.6823854E0,3.94166E0,6.065088E0,0E0,4.039734E0,3.3513591E0,3.824099E0,3.304386E-2,6.57635E0,4.291353E0,1.7907338E0,0E0,0E0,0E0,0E0,0E0,0E0,0E0,0E0,0E0,0E0,0E0,0E0],"parents":[2147483647,0,0,1,1,2,2,5,5,6,6,7,7,8,8,10,10,11,11,12,12,13,13,14,14,15,15,16,16],"right_children":[2,4,6,-1,-1,8,10,12,14,-1,16,18,20,22,24,26,28,-1,-1,-1,-1,-1,-1,-1,-1,-1,-1,-1,-1],"split_conditions":[-4.1045416E-3,-1.174891E-2,-1.5798878E-3,-1.7139408E-3,4.8386108E-2,1.794678E-3,-1.40188625E-2,-1.9469936E-3,1.2886456E-1,-6.768676E-2,6.160927E-1,-2.9223696E-3,5.7854485E-3,8.174294E-2,2.5574095E-3,1.705152E-3,3.2993054E-3,-4.342811E-2,8.374713E-3,5.7302594E-2,-1.2666456E-2,-6.75699E-2,-2.2898179E-2,-2.4522088E-2,4.9448464E-2,-3.2739185E-3,1.5287638E-2,-5.312063E-2,3.394878E-3],"split_indices":[1,3,5,0,0,1,3,5,2,0,2,1,0,2,1,1,1,0,0,0,0,0,0,0,0,0,0,0,0],"split_type":[0,0,0,0,0,0,0,0,0,0,0,0,0,0,0,0,0,0,0,0,0,0,0,0,0,0,0,0,0],"sum_hessian":[4.50958E2,4.8537803E0,4.4610422E2,1.1653216E0,3.6884587E0,1.4379198E2,3.0231226E2,1.2773557E2,1.6056404E1,1.7367243E0,3.0057553E2,1.18957405E2,8.778169E0,4.969604E0,1.1086801E1,2.9439203E2,6.1834908E0,2.2265975E0,1.16730804E2,6.571723E0,2.2064455E0,3.4805663E0,1.4890375E0,7.409988E0,3.6768122E0,2.6003094E2,3.436109E1,4.451141E0,1.7323499E0],"tree_param":{"num_deleted":"0","num_feature":"7","num_nodes":"29","size_leaf_vector":"1"}},{"base_weights":[3.975808E-2,8.342602E-1,2.6101854E-2,6.0053386E-2,1.77753E-1,-6.226654E-1,3.8779162E-2,2.6008798E-2,-1.2798547E-2,-2.550151E-1,-6.6129744E-2,1.706574E-1,-2.8437495E-2,-5.651349E-2,1.3773769E-1,2.810981E-1,-1.7734013E-1,-2.1035619E-1,7.8852296E-2,2.598781E-2,-3.4213055E-2,2.2196515E-2,2.899025E-3,-4.6557244E-2,4.265365E-4,-1.599287E-2,6.1821057E-3,-1.2677212E-2,9.7409515E-3],"categories":[],"categories_nodes":[],"categories_segments":[],"categories_sizes":[],"default_left":[0,0,0,0,0,0,0,0,0,0,0,0,0,0,0,0,0,0,0,0,0,0,0,0,0,0,0,0,0],"id":30,"left_children":[1,3,5,-1,7,9,11,-1,-1,13,-1,15,17,-1,19,21,23,25,27,-1,-1,-1,-1,-1,-1,-1,-1,-1,-1],"loss_changes":[4.911344E0,1.6288829E0,3.7089334E0,0E0,7.147568E-1,1.8874333E0,3.9085064E0,0E0,0E0,2.5300202E0,0E0,5.769378E0,5.726694E0,0E0,2.1326792E0,4.092477E0,5.1169724E0,4.018867E0,7.1710005E0,0E0,0E0,0E0,0E0,0E0,0E0,0E0,0E0,0E0,0E0],"parents":[2147483647,0,0,1,1,2,2,4,4,5,5,6,6,9,9,11,11,12,12,14,14,15,15,16,16,17,17,18,18],"right_children":[2,4,6,-1,8,10,12,-1,-1,14,-1,16,18,-1,20,22,24,26,28,-1,-1,-1,-1,-1,-1,-1,-1,-1,-1],"split_conditions":[-3.8735326E-3,6.030179E-4,-2.9223696E-3,6.0053386E-2,7.3454184E-3,-3.0793333E-3,-1.318887E-3,2.6008798E-2,-1.2798547E-2,4.947341E-3,-6.6129744E-2,3.067626E-3,1.1600114E-3,-5.651349E-2,7.4607357E-3,9.603458E-4,3.5213723E-3,2.7792947E-3,3.626953E-3,2.598781E-2,-3.4213055E-2,2.2196515E-2,2.899025E-3,-4.6557244E-2,4.265365E-4,-1.599287E-2,6.1821057E-3,-1.2677212E-2,9.7409515E-3],"split_indices":[1,5,1,0,0,1,5,0,0,0,0,4,5,0,0,3,4,3,0,0,0,0,0,0,0,0,0,0,0],"split_type":[0,0,0,0,0,0,0,0,0,0,0,0,0,0,0,0,0,0,0,0,0,0,0,0,0,0,0,0,0],"sum_hessian":[4.536696E2,6.6506896E0,4.470189E2,3.7345946E0,2.9160953E0,7.6454015E0,4.393735E2,1.518177E0,1.3979183E0,5.9069934E0,1.7384082E0,1.4781784E2,2.9155566E2,1.2479984E0,4.658995E0,1.1235351E2,3.546433E1,1.0780417E2,1.837515E2,3.431787E0,1.2272081E0,6.437944E1,4.797407E1,6.2218404E0,2.9242489E1,8.121891E1,2.6585255E1,4.721949E1,1.3653201E2],"tree_param":{"num_deleted":"0","num_feature":"7","num_nodes":"29","size_leaf_vector":"1"}},{"base_weights":[1.19725475E-2,-3.192398E-2,1.9555753E-1,1.5600313E-1,-9.218122E-2,5.8058476E-1,2.3621308E-2,2.7060068E-1,-2.5219345E-1,-6.915059E-1,-6.2028643E-2,3.9453185E-1,1.1147479E0,7.7312213E-1,-4.792077E-2,4.1277874E-1,-4.0159047E-2,-7.108352E-1,2.8456012E-2,2.3969028E-2,-9.6564746E-1,5.322312E-1,-7.5242214E-2,6.016876E-1,-5.3434235E-1,1.0104171E-2,6.473692E-2,5.315559E-2,4.8758904E-3,-3.5180712E-1,2.5367895E-1,-1.7252736E-2,2.6051437E-2,-9.3477685E-3,2.531433E-2,-4.577287E-2,9.752989E-3,5.0833173E-2,-7.562282E-3,-5.6487273E-2,9.268325E-3,-2.1210918E-2,4.3114003E-2,-2.8500265E-2,-2.41988E-3,-5.409678E-3,5.2124E-2,7.853883E-3,-4.2441428E-2,-4.14969E-2,-2.9624035E-3,2.3972005E-2,-2.0717798E-2],"categories":[],"categories_nodes":[],"categories_segments":[],"categories_sizes":[],"default_left":[0,0,0,0,0,0,0,0,0,0,0,0,0,0,0,0,0,0,0,0,0,0,0,0,0,0,0,0,0,0,0,0,0,0,0,0,0,0,0,0,0,0,0,0,0,0,0,0,0,0,0,0,0],"id":31,"left_children":[1,3,5,7,9,11,13,15,17,19,21,23,25,27,29,31,33,35,37,-1,39,41,43,45,47,-1,-1,-1,-1,49,51,-1,-1,-1,-1,-1,-1,-1,-1,-1,-1,-1,-1,-1,-1,-1,-1,-1,-1,-1,-1,-1,-1],"loss_changes":[3.6753445E0,4.1849656E0,5.8117213E0,4.268523E0,5.008112E0,2.2557144E0,3.354824E0,3.135519E0,2.6203232E0,4.728875E0,2.1383047E0,4.490103E0,7.9934406E-1,9.6405435E-1,5.352352E0,4.1602354E0,1.9452429E0,1.6071506E0,2.5499218E0,0E0,2.3060713E0,2.2397242E0,3.45594E0,5.8026843E0,1.107485E0,0E0,0E0,0E0,0E0,4.010604E0,4.632946E0,0E0,0E0,0E0,0E0,0E0,0E0,0E0,0E0,0E0,0E0,0E0,0E0,0E0,0E0,0E0,0E0,0E0,0E0,0E0,0E0,0E0,0E0],"parents":[2147483647,0,0,1,1,2,2,3,3,4,4,5,5,6,6,7,7,8,8,9,9,10,10,11,11,12,12,13,13,14,14,15,15,16,16,17,17,18,18,20,20,21,21,22,22,23,23,24,24,29,29,30,30],"right_children":[2,4,6,8,10,12,14,16,18,20,22,24,26,28,30,32,34,36,38,-1,40,42,44,46,48,-1,-1,-1,-1,50,52,-1,-1,-1,-1,-1,-1,-1,-1,-1,-1,-1,-1,-1,-1,-1,-1,-1,-1,-1,-1,-1,-1],"split_conditions":[3.6923434E-3,-1.058188E-3,4.674814E-3,7.9532113E-4,-9.1304304E-4,3.3230255E-3,3.5144005E-3,8.0215326E-4,1.5155711E-3,-4.4572228E-3,-9.6446825E-3,2.1707576E-3,4.0210728E-3,2.289217E-3,5.0149467E-3,3.191583E-3,-1.1749979E-3,-1.230425E-3,1.7669423E-3,2.3969028E-2,2.3691235E-3,-1.40188625E-2,-6.6518504E-3,2.2917498E-4,3.1673053E-4,1.0104171E-2,6.473692E-2,5.315559E-2,4.8758904E-3,-1.4830607E-3,3.9113895E-3,-1.7252736E-2,2.6051437E-2,-9.3477685E-3,2.531433E-2,-4.577287E-2,9.752989E-3,5.0833173E-2,-7.562282E-3,-5.6487273E-2,9.268325E-3,-2.1210918E-2,4.3114003E-2,-2.8500265E-2,-2.41988E-3,-5.409678E-3,5.2124E-2,7.853883E-3,-4.2441428E-2,-4.14969E-2,-2.9624035E-3,2.3972005E-2,-2.0717798E-2],"split_indices":[3,1,3,3,1,4,0,4,3,4,3,4,0,4,0,0,1,1,3,0,3,3,3,1,1,0,0,0,0,4,4,0,0,0,0,0,0,0,0,0,0,0,0,0,0,0,0,0,0,0,0,0,0],"split_type":[0,0,0,0,0,0,0,0,0,0,0,0,0,0,0,0,0,0,0,0,0,0,0,0,0,0,0,0,0,0,0,0,0,0,0,0,0,0,0,0,0,0,0,0,0,0,0,0,0,0,0,0,0],"sum_hessian":[4.5429453E2,3.6729715E2,8.699735E1,8.879113E1,2.7850604E2,2.6122627E1,6.087473E1,6.9591125E1,1.9200006E1,1.2290073E1,2.6621597E2,2.0663853E1,5.4587736E0,4.449858E0,5.642487E1,4.7521095E1,2.2070026E1,6.70681E0,1.24931965E1,2.1895638E0,1.010051E1,4.936258E0,2.612797E2,1.7183794E1,3.480058E0,1.2488859E0,4.209888E0,2.71215E0,1.7377081E0,2.802297E1,2.8401901E1,5.6661463E0,4.185495E1,1.7915188E1,4.1548386E0,5.462413E0,1.2443972E0,1.205647E0,1.1287549E1,8.856353E0,1.2441565E0,1.19319E0,3.743068E0,1.2405478E1,2.4887422E2,6.871701E0,1.0312094E1,1.2444885E0,2.2355695E0,9.940437E0,1.8082533E1,2.1438957E1,6.962943E0],"tree_param":{"num_deleted":"0","num_feature":"7","num_nodes":"53","size_leaf_vector":"1"}},{"base_weights":[-1.0760733E-3,5.040684E-1,-1.9534752E-2,-6.351477E-2,7.6431555E-1,-8.5283643E-1,-2.7448425E-4,3.1032187E-1,-3.136336E-2,9.256552E-1,2.247066E-1,-9.5072556E-1,-4.516474E-3,-1.0347055E-1,5.017465E-2,4.774964E-2,-2.187775E-2,4.1831473E-1,6.224641E-2,-1.836639E-2,3.1862743E-2,-7.178531E-3,-5.3226E-2,1.5855137E-3,-4.9089056E-1,2.586386E-1,-2.4627091E-2,4.3600675E-2,7.69166E-4,5.4922453E-3,-1.9123262E-2,-7.6073483E-3,-4.7215793E-2,4.286259E-2,7.653703E-3,-4.399112E-2,-1.5292763E-4],"categories":[],"categories_nodes":[],"categories_segments":[],"categories_sizes":[],"default_left":[0,0,0,0,0,0,0,0,0,0,0,0,0,0,0,0,0,0,0,0,0,0,0,0,0,0,0,0,0,0,0,0,0,0,0,0,0],"id":32,"left_children":[1,3,5,7,9,11,13,15,-1,17,19,21,-1,23,25,-1,-1,27,-1,-1,-1,-1,-1,29,31,33,35,-1,-1,-1,-1,-1,-1,-1,-1,-1,-1],"loss_changes":[4.207945E0,2.3985572E0,6.986526E0,1.4433063E0,7.483263E-1,6.481471E-1,2.2255557E0,2.4579926E0,0E0,7.970514E-1,1.1741596E0,6.380143E-1,0E0,5.713681E0,4.4836464E0,0E0,0E0,8.363595E-1,0E0,0E0,0E0,0E0,0E0,4.6744285E0,4.4558516E0,4.6655707E0,3.9117246E0,0E0,0E0,0E0,0E0,0E0,0E0,0E0,0E0,0E0,0E0],"parents":[2147483647,0,0,1,1,2,2,3,3,4,4,5,5,6,6,7,7,9,9,10,10,11,11,13,13,14,14,17,17,23,23,24,24,25,25,26,26],"right_children":[2,4,6,8,10,12,14,16,-1,18,20,22,-1,24,26,-1,-1,28,-1,-1,-1,-1,-1,30,32,34,36,-1,-1,-1,-1,-1,-1,-1,-1,-1,-1],"split_conditions":[-8.64428E-3,-2.7763068E-3,-7.6398724E-3,-4.461968E-3,5.5290926E-2,1.0230188E-1,-1.1361437E-3,5.916238E-3,-3.136336E-2,-1.0747296E-1,9.7996466E-2,-3.348695E-1,-4.516474E-3,-1.9510472E-3,6.030179E-4,4.774964E-2,-2.187775E-2,5.1742806E-3,6.224641E-2,-1.836639E-2,3.1862743E-2,-7.178531E-3,-5.3226E-2,3.0204519E-3,4.737395E-3,2.9086354E-3,2.4673406E-3,4.3600675E-2,7.69166E-4,5.4922453E-3,-1.9123262E-2,-7.6073483E-3,-4.7215793E-2,4.286259E-2,7.653703E-3,-4.399112E-2,-1.5292763E-4],"split_indices":[4,3,4,3,2,2,4,0,0,2,2,2,0,4,4,0,0,0,0,0,0,0,0,3,0,0,0,0,0,0,0,0,0,0,0,0,0],"split_type":[0,0,0,0,0,0,0,0,0,0,0,0,0,0,0,0,0,0,0,0,0,0,0,0,0,0,0,0,0,0,0,0,0,0,0,0,0],"sum_hessian":[4.4923203E2,1.4909424E1,4.343226E2,4.924763E0,9.98466E0,8.834072E0,4.2548853E2,3.231456E0,1.6933073E0,7.1357102E0,2.84895E0,7.6102424E0,1.22383E0,1.3936333E2,2.861252E2,1.5867429E0,1.6447132E0,3.6484127E0,3.4872975E0,1.2149818E0,1.633968E0,1.2197939E0,6.3904486E0,1.104175E2,2.894583E1,7.490787E1,2.1121735E2,1.1685065E0,2.4799063E0,8.669358E1,2.372392E1,1.7332598E1,1.1613234E1,1.0162103E1,6.474576E1,4.217094E0,2.0700024E2],"tree_param":{"num_deleted":"0","num_feature":"7","num_nodes":"37","size_leaf_vector":"1"}},{"base_weights":[-5.1018506E-2,-5.9071187E-2,7.008921E-1,-5.115459E-2,-8.952477E-1,5.9363104E-2,-5.8029853E-3,-5.267617E-1,-3.6979865E-2,1.3991277E-3,-6.3372575E-2,-7.838525E-1,1.3990872E-1,-8.294778E-2,1.2990633E-1,-6.998908E-2,-6.9994824E-3,2.8530238E-2,-2.1265863E-2,2.693894E-4,-9.296539E-3,2.7080739E-2,4.398316E-4],"categories":[],"categories_nodes":[],"categories_segments":[],"categories_sizes":[],"default_left":[0,0,0,0,0,0,0,0,0,0,0,0,0,0,0,0,0,0,0,0,0,0,0],"id":33,"left_children":[1,3,5,7,9,-1,-1,11,13,-1,-1,15,17,19,21,-1,-1,-1,-1,-1,-1,-1,-1],"loss_changes":[2.7857018E0,2.9287944E0,2.0769308E0,2.9886374E0,1.4628448E0,0E0,0E0,2.3100333E0,3.3429623E0,0E0,0E0,3.5383902E0,1.3190528E0,3.104642E0,4.69197E0,0E0,0E0,0E0,0E0,0E0,0E0,0E0,0E0],"parents":[2147483647,0,0,1,1,2,2,3,3,4,4,7,7,8,8,11,11,12,12,13,13,14,14],"right_children":[2,4,6,8,10,-1,-1,12,14,-1,-1,16,18,20,22,-1,-1,-1,-1,-1,-1,-1,-1],"split_conditions":[9.382451E-3,9.0009635E-3,3.1795811E-3,-9.287266E-3,-3.8735326E-3,5.9363104E-2,-5.8029853E-3,6.1538746E-3,5.304661E-3,1.3991277E-3,-6.3372575E-2,-8.928602E-4,7.5683824E-4,4.1043353E-3,-4.0962896E-3,-6.998908E-2,-6.9994824E-3,2.8530238E-2,-2.1265863E-2,2.693894E-4,-9.296539E-3,2.7080739E-2,4.398316E-4],"split_indices":[0,0,1,5,1,0,0,0,0,0,0,3,3,0,3,0,0,0,0,0,0,0,0],"split_type":[0,0,0,0,0,0,0,0,0,0,0,0,0,0,0,0,0,0,0,0,0,0,0],"sum_hessian":[4.522364E2,4.483561E2,3.8802872E0,4.4520227E2,3.1538267E0,2.1481245E0,1.7321628E0,1.183799E1,4.333643E2,1.1718755E0,1.9819511E0,8.41652E0,3.421469E0,3.401694E2,9.3194885E1,3.7015374E0,4.7149835E0,1.9364212E0,1.4850478E0,1.836166E2,1.5655281E2,2.039401E1,7.280088E1],"tree_param":{"num_deleted":"0","num_feature":"7","num_nodes":"23","size_leaf_vector":"1"}},{"base_weights":[-2.342159E-2,-4.128216E-2,4.2386127E-1,-2.0581683E-2,-4.0041137E-1,1.3986157E-1,1.0412318E0,1.1226915E-2,-2.9546124E-1,3.438178E-1,-6.6321903E-1,5.7729965E-1,-2.974684E-1,2.987363E-3,6.5437205E-2,-9.992004E-3,8.68442E-1,-9.1987973E-1,-7.830886E-2,-4.148272E-2,7.483829E-1,-8.1483996E-1,3.122366E-2,9.990592E-1,-1.0575137E-2,-7.0535046E-1,2.6211781E-2,1.0964433E-3,-1.9601863E-2,5.875967E-2,6.451165E-3,3.341886E-2,-6.1831474E-2,-3.1353E-2,4.037694E-3,-1.5797464E-2,5.6133665E-2,1.48041025E-2,-4.8528373E-2,6.186689E-2,9.507661E-3,-6.193119E-2,1.8837966E-2],"categories":[],"categories_nodes":[],"categories_segments":[],"categories_sizes":[],"default_left":[0,0,0,0,0,0,0,0,0,0,0,0,0,0,0,0,0,0,0,0,0,0,0,0,0,0,0,0,0,0,0,0,0,0,0,0,0,0,0,0,0,0,0],"id":34,"left_children":[1,3,5,7,9,11,13,15,17,19,21,23,25,-1,-1,27,29,31,33,-1,35,37,-1,39,-1,41,-1,-1,-1,-1,-1,-1,-1,-1,-1,-1,-1,-1,-1,-1,-1,-1,-1],"loss_changes":[3.6110637E0,3.2142253E0,2.898381E0,3.5960238E0,4.837976E0,2.6675565E0,1.317297E0,6.7249436E0,5.711529E0,3.8537107E0,3.9763284E0,2.4943278E0,2.7775223E0,0E0,0E0,4.4149065E0,1.8740001E0,6.316616E0,2.9084306E0,0E0,2.581405E0,3.1112604E0,0E0,6.6026115E-1,0E0,3.4830728E0,0E0,0E0,0E0,0E0,0E0,0E0,0E0,0E0,0E0,0E0,0E0,0E0,0E0,0E0,0E0,0E0,0E0],"parents":[2147483647,0,0,1,1,2,2,3,3,4,4,5,5,6,6,7,7,8,8,9,9,10,10,11,11,12,12,15,15,16,16,17,17,18,18,20,20,21,21,23,23,25,25],"right_children":[2,4,6,8,10,12,14,16,18,20,22,24,26,-1,-1,28,30,32,34,-1,36,38,-1,40,-1,42,-1,-1,-1,-1,-1,-1,-1,-1,-1,-1,-1,-1,-1,-1,-1,-1,-1],"split_conditions":[8.764446E-3,7.771789E-3,6.9602123E-3,4.705546E-3,-4.0962896E-3,-5.029961E-4,-5.2094054E-3,4.322082E-3,5.2784337E-3,-1.5623363E-2,2.2556123E-1,1.0554337E-2,3.7190395E-3,2.987363E-3,6.5437205E-2,3.3419342E-3,1.0230188E-1,-5.919207E-3,3.6638312E-3,-4.148272E-2,8.088037E-3,-3.8735326E-3,3.122366E-2,5.5290926E-2,-1.0575137E-2,1.2413244E-3,2.6211781E-2,1.0964433E-3,-1.9601863E-2,5.875967E-2,6.451165E-3,3.341886E-2,-6.1831474E-2,-3.1353E-2,4.037694E-3,-1.5797464E-2,5.6133665E-2,1.48041025E-2,-4.8528373E-2,6.186689E-2,9.507661E-3,-6.193119E-2,1.8837966E-2],"split_indices":[5,0,0,5,3,3,3,5,5,3,2,5,3,0,0,5,2,3,0,0,0,1,0,2,0,1,0,0,0,0,0,0,0,0,0,0,0,0,0,0,0,0,0],"split_type":[0,0,0,0,0,0,0,0,0,0,0,0,0,0,0,0,0,0,0,0,0,0,0,0,0,0,0,0,0,0,0,0,0,0,0,0,0,0,0,0,0,0,0],"sum_hessian":[4.4882962E2,4.3246832E2,1.6361301E1,4.0989874E2,2.2569561E1,1.2046346E1,4.314956E0,3.682452E2,4.1653557E1,5.8095627E0,1.6759998E1,5.8624206E0,6.1839247E0,1.1862028E0,3.1287532E0,3.6031454E2,7.9306374E0,9.91294E0,3.1740618E1,1.2200326E0,4.58953E0,1.5322983E1,1.4370146E0,3.646269E0,2.2161515E0,4.2272024E0,1.9567225E0,3.3340067E2,2.6913889E1,5.188723E0,2.7419145E0,1.4636661E0,8.449274E0,6.47169E0,2.5268927E1,1.2346239E0,3.354906E0,1.7730672E0,1.3549916E1,2.407462E0,1.2388071E0,2.734821E0,1.4923815E0],"tree_param":{"num_deleted":"0","num_feature":"7","num_nodes":"43","size_leaf_vector":"1"}},{"base_weights":[1.033235E-2,-3.679756E-2,1.5439971E-1,-5.642565E-2,8.1464064E-1,5.744584E-1,3.4114566E-2,-4.512947E-2,-8.510607E-1,1.0136946E0,3.446651E-3,8.977304E-1,3.804211E-2,5.884521E-1,-4.3439034E-2,-5.4740418E-2,5.7643514E-2,-6.197539E-2,-1.4263011E-2,5.937112E-2,1.7575912E-2,1.8756525E-1,1.0637743E0,3.364263E-2,-2.7931085E-1,-2.2800975E-2,7.9958194E-1,4.7241278E-2,-6.150165E-1,-4.800729E-3,5.6068674E-3,-2.1425735E-2,4.6559174E-2,5.887116E-2,2.563237E-2,-3.9147902E-2,3.1734373E-2,6.8855435E-3,5.4947563E-2,-1.6327864E-2,9.8784305E-3,1.8093763E-2,-5.3703208E-2],"categories":[],"categories_nodes":[],"categories_segments":[],"categories_sizes":[],"default_left":[0,0,0,0,0,0,0,0,0,0,0,0,0,0,0,0,0,0,0,0,0,0,0,0,0,0,0,0,0,0,0,0,0,0,0,0,0,0,0,0,0,0,0],"id":35,"left_children":[1,3,5,7,9,11,13,15,17,19,-1,21,23,25,27,29,-1,-1,-1,-1,-1,31,33,-1,35,-1,37,39,41,-1,-1,-1,-1,-1,-1,-1,-1,-1,-1,-1,-1,-1,-1],"loss_changes":[3.1234725E0,5.8417535E0,5.7091484E0,3.0128493E0,1.099711E0,4.331627E0,3.8605194E0,3.934245E0,6.8125916E-1,2.8966045E-1,0E0,1.6476545E0,2.3055487E0,2.794079E0,4.133383E0,2.3146653E0,0E0,0E0,0E0,0E0,0E0,2.3151948E0,1.7822552E-1,0E0,4.0482306E0,0E0,1.7365098E0,3.957112E0,5.282994E0,0E0,0E0,0E0,0E0,0E0,0E0,0E0,0E0,0E0,0E0,0E0,0E0,0E0,0E0],"parents":[2147483647,0,0,1,1,2,2,3,3,4,4,5,5,6,6,7,7,8,8,9,9,11,11,12,12,13,13,14,14,15,15,21,21,22,22,24,24,26,26,27,27,28,28],"right_children":[2,4,6,8,10,12,14,16,18,20,-1,22,24,26,28,30,-1,-1,-1,-1,-1,32,34,-1,36,-1,38,40,42,-1,-1,-1,-1,-1,-1,-1,-1,-1,-1,-1,-1,-1,-1],"split_conditions":[5.304661E-3,2.7712644E-3,-1.6469668E-1,6.160927E-1,4.84279E-3,6.8880543E-3,5.4502273E-3,5.7520264E-1,1.794678E-3,7.048733E-1,3.446651E-3,5.4502273E-3,-5.2094054E-3,-1.0973713E-1,2.4211372E-3,1.8085164E-1,5.7643514E-2,-6.197539E-2,-1.4263011E-2,5.937112E-2,1.7575912E-2,-2.2951701E-1,4.37112E-3,3.364263E-2,8.284452E-3,-2.2800975E-2,-4.4768373E-4,-6.575722E-2,-3.1862434E-2,-4.800729E-3,5.6068674E-3,-2.1425735E-2,4.6559174E-2,5.887116E-2,2.563237E-2,-3.9147902E-2,3.1734373E-2,6.8855435E-3,5.4947563E-2,-1.6327864E-2,9.8784305E-3,1.8093763E-2,-5.3703208E-2],"split_indices":[0,1,2,2,0,0,0,2,1,2,0,0,3,2,1,2,0,0,0,0,0,2,3,0,0,0,3,2,2,0,0,0,0,0,0,0,0,0,0,0,0,0,0],"split_type":[0,0,0,0,0,0,0,0,0,0,0,0,0,0,0,0,0,0,0,0,0,0,0,0,0,0,0,0,0,0,0,0,0,0,0,0,0,0,0,0,0,0,0],"sum_hessian":[4.5818195E2,3.4580167E2,1.1238029E2,3.3892227E2,6.8794007E0,2.4176281E1,8.820401E1,3.352138E2,3.7084575E0,5.146308E0,1.7330927E0,1.4664894E1,9.511387E0,1.0016978E1,7.818703E1,3.3349268E2,1.7211361E0,1.4928408E0,2.2156167E0,3.4483833E0,1.6979246E0,3.1826031E0,1.1482291E1,2.7967544E0,6.7146325E0,1.4893209E0,8.5276575E0,6.8272934E1,9.914097E0,2.6770532E2,6.578735E1,1.9723091E0,1.2102939E0,8.577183E0,2.9051085E0,4.421559E0,2.2930737E0,3.1105633E0,5.4170938E0,1.9245487E1,4.9027443E1,3.237055E0,6.677042E0],"tree_param":{"num_deleted":"0","num_feature":"7","num_nodes":"43","size_leaf_vector":"1"}},{"base_weights":[6.6973725E-3,1.8131152E-1,-3.7071258E-2,1.2343453E-1,8.742205E-1,-5.660302E-1,-8.551046E-3,7.4176125E-2,7.036761E-1,5.6148082E-2,4.8280004E-3,-1.2120789E0,-2.2181946E-1,-1.8841086E-1,4.517122E-2,1.0387813E-1,-3.5627022E-2,9.923822E-2,5.1527705E-2,-8.102499E-3,-7.219773E-2,1.8047938E-1,-7.5530016E-1,-3.4218296E-1,2.4536368E-1,7.2111976E-1,1.0519141E-2,2.0564506E-2,-8.6582854E-4,2.2246724E-2,-1.4188488E-2,-1.6048608E-2,3.190602E-2,-9.710365E-3,-6.1676264E-2,-8.067724E-3,-4.1908145E-2,-4.4788864E-2,1.7861651E-2,6.0089745E-2,-2.8074626E-2,-3.2940188E-3,7.3922784E-3],"categories":[],"categories_nodes":[],"categories_segments":[],"categories_sizes":[],"default_left":[0,0,0,0,0,0,0,0,0,0,0,0,0,0,0,0,0,0,0,0,0,0,0,0,0,0,0,0,0,0,0,0,0,0,0,0,0,0,0,0,0,0,0],"id":36,"left_children":[1,3,5,7,9,11,13,15,17,-1,-1,19,21,23,25,27,-1,29,-1,-1,-1,31,33,35,37,39,41,-1,-1,-1,-1,-1,-1,-1,-1,-1,-1,-1,-1,-1,-1,-1,-1],"loss_changes":[3.4275398E0,3.4965107E0,5.4068093E0,2.351926E0,1.1999984E0,3.8087478E0,3.3071165E0,1.9118304E0,1.174885E0,0E0,0E0,1.2633104E0,2.9664466E0,5.3340487E0,6.168454E0,2.863264E0,0E0,5.7317036E-1,0E0,0E0,0E0,2.1152382E0,1.333374E0,5.113892E0,3.024076E0,8.592838E0,2.6518662E0,0E0,0E0,0E0,0E0,0E0,0E0,0E0,0E0,0E0,0E0,0E0,0E0,0E0,0E0,0E0,0E0],"parents":[2147483647,0,0,1,1,2,2,3,3,4,4,5,5,6,6,7,7,8,8,11,